{"learner":{"attributes":{"scikit_learn":"{\"_estimator_type\": \"classifier\"}"},"feature_names":["seller_id","amount","payment_method","device_type","location"],"feature_types":["int","float","int","int","int"],"gradient_booster":{"model":{"gbtree_model_param":{"num_parallel_tree":"1","num_trees":"100"},"iteration_indptr":[0,1,2,3,4,5,6,7,8,9,10,11,12,13,14,15,16,17,18,19,20,21,22,23,24,25,26,27,28,29,30,31,32,33,34,35,36,37,38,39,40,41,42,43,44,45,46,47,48,49,50,51,52,53,54,55,56,57,58,59,60,61,62,63,64,65,66,67,68,69,70,71,72,73,74,75,76,77,78,79,80,81,82,83,84,85,86,87,88,89,90,91,92,93,94,95,96,97,98,99,100],"tree_info":[0,0,0,0,0,0,0,0,0,0,0,0,0,0,0,0,0,0,0,0,0,0,0,0,0,0,0,0,0,0,0,0,0,0,0,0,0,0,0,0,0,0,0,0,0,0,0,0,0,0,0,0,0,0,0,0,0,0,0,0,0,0,0,0,0,0,0,0,0,0,0,0,0,0,0,0,0,0,0,0,0,0,0,0,0,0,0,0,0,0,0,0,0,0,0,0,0,0,0,0],"trees":[{"base_weights":[-3.9325762E-8,-4.0621802E-1,1.9801666E0,-1.734572E0,-3.9576176E-1,5.745604E-1,5.998815E-1,-5.9621453E-1,-1.2882563E0,-4.7517407E-1,-3.5792267E-1,-5.8811885E-1,-4.9056607E-1,-5.0591606E-1,-2.252359E-1,-3.240722E-1,-4.944919E-1,2.0994471E-1,-5.6E-1,-4.7168952E-1,-1.2218457E0,2.0125782E-1,-4.5584565E-1,-3.9068374E-1,-2.3234472E-1,-1.3704293E0,-4.61105E-1,2.108108E-1,-5.0769234E-1,-1.6437046E-1,-1.0025059E-1,-5.94794E-1,-2.7877128E-1,-5.5E-1,7.9172045E-2,-2.7226892E-1,-8.46189E-3,-2.9362658E-1,-1.13178186E-1,-2.777269E-1,-6.1620023E-2,-2.720765E-2,-5.164865E-1,-2.335652E-1,-1.1747543E-1],"categories":[],"categories_nodes":[],"categories_segments":[],"categories_sizes":[],"default_left":[0,0,0,0,0,0,0,0,0,0,0,0,0,0,0,0,0,0,0,0,0,0,0,0,0,0,0,0,0,0,0,0,0,0,0,0,0,0,0,0,0,0,0,0,0],"id":0,"left_children":[1,3,5,7,9,-1,-1,-1,11,13,15,-1,17,19,21,23,25,27,-1,29,31,33,35,37,39,41,43,-1,-1,-1,-1,-1,-1,-1,-1,-1,-1,-1,-1,-1,-1,-1,-1,-1,-1],"loss_changes":[3.1211523E4,4.4651758E2,4.5097656E0,2.5779602E1,9.582715E1,0E0,0E0,0E0,4.925856E1,7.907886E1,9.9884766E1,0E0,4.2967384E1,2.2429663E2,1.112969E2,1.0589148E2,1.25023315E2,2.9465914E1,0E0,9.1628174E1,9.122986E1,5.11512E1,1.4179495E2,7.893884E1,1.361918E2,7.0517334E1,9.106952E1,0E0,0E0,0E0,0E0,0E0,0E0,0E0,0E0,0E0,0E0,0E0,0E0,0E0,0E0,0E0,0E0,0E0,0E0],"parents":[2147483647,0,0,1,1,2,2,3,3,4,4,8,8,9,9,10,10,12,12,13,13,14,14,15,15,16,16,17,17,19,19,20,20,21,21,22,22,23,23,24,24,25,25,26,26],"right_children":[2,4,6,8,10,-1,-1,-1,12,14,16,-1,18,20,22,24,26,28,-1,30,32,34,36,38,40,42,44,-1,-1,-1,-1,-1,-1,-1,-1,-1,-1,-1,-1,-1,-1,-1,-1,-1,-1],"split_conditions":[4.99165E3,1.569E2,5.58706E3,1.3946E2,2E0,5.745604E-1,5.998815E-1,-5.9621453E-1,4E0,4.49719E3,8E1,-5.8811885E-1,5E0,4.24277E3,2.8E1,3.03991E3,8.1E1,5.6E1,-5.6E-1,2.86157E3,3.5E1,2E0,6.9E1,2.3446E2,4E0,7.1357E2,1E0,2.108108E-1,-5.0769234E-1,-1.6437046E-1,-1.0025059E-1,-5.94794E-1,-2.7877128E-1,-5.5E-1,7.9172045E-2,-2.7226892E-1,-8.46189E-3,-2.9362658E-1,-1.13178186E-1,-2.777269E-1,-6.1620023E-2,-2.720765E-2,-5.164865E-1,-2.335652E-1,-1.1747543E-1],"split_indices":[1,1,1,1,4,0,0,0,4,1,0,0,4,1,0,1,0,0,0,1,0,0,0,1,0,1,2,0,0,0,0,0,0,0,0,0,0,0,0,0,0,0,0,0,0],"split_type":[0,0,0,0,0,0,0,0,0,0,0,0,0,0,0,0,0,0,0,0,0,0,0,0,0,0,0,0,0,0,0,0,0,0,0,0,0,0,0,0,0,0,0,0,0],"sum_hessian":[3.88E4,3.2196E4,6.6039995E3,2.5016667E2,3.1945832E4,1.5438333E3,5.0601665E3,1.575E2,9.2666664E1,1.030575E4,2.1640082E4,4.95E1,4.3166664E1,9.176083E3,1.1296666E3,1.7344416E4,4.2956665E3,2.9166666E1,1.4E1,8.759E3,4.1708334E2,3.965E2,7.331666E2,1.0045917E4,7.2985E3,1.5625E2,4.1394165E3,2.3666666E1,5.5E0,5.6338335E3,3.1251665E3,1.1425E2,3.0283334E2,1.1E1,3.855E2,3.56E2,3.7716666E2,2.2258333E2,9.823333E3,2.7175E2,7.02675E3,3.3916664E1,1.22333336E2,7.418333E2,3.3975833E3],"tree_param":{"num_deleted":"0","num_feature":"5","num_nodes":"45","size_leaf_vector":"1"}},{"base_weights":[2.440063E-3,-2.8643677E-1,1.5306245E0,-1.3378521E0,-2.7874818E-1,4.4138172E-1,4.6456268E-1,-4.6206567E-1,-9.884442E-1,-2.4298984E-1,-3.352374E-1,-4.5656693E-1,-3.8243273E-1,-2.5395206E-1,2.7676234E-1,-2.0170498E-1,-3.8183486E-1,1.3855045E-1,-4.3759102E-1,-4.006727E-1,-2.3617704E-1,4.10738E-1,-1.005668E0,-8.514653E-1,-1.8084335E-1,-4.3537048E-1,-2.8362486E-1,1.5196314E-1,-4.0255463E-1,-7.666269E-2,-1.9663191E-1,-6.5817875E-3,-8.0048144E-2,-4.30591E-2,2.370469E-1,-5.439842E-1,1.8283685E-1,6.276202E-2,-5.477933E-1,2.175317E-4,-8.384639E-2,-3.6531338E-1,-1.262344E-1,-7.745217E-2,-5.5503535E-1],"categories":[],"categories_nodes":[],"categories_segments":[],"categories_sizes":[],"default_left":[0,0,0,0,0,0,0,0,0,0,0,0,0,0,0,0,0,0,0,0,0,0,0,0,0,0,0,0,0,0,0,0,0,0,0,0,0,0,0,0,0,0,0,0,0],"id":1,"left_children":[1,3,5,7,9,-1,-1,-1,11,13,15,-1,17,19,21,23,25,27,-1,29,31,33,35,37,39,41,43,-1,-1,-1,-1,-1,-1,-1,-1,-1,-1,-1,-1,-1,-1,-1,-1,-1,-1],"loss_changes":[1.6813613E4,2.5856714E2,4.1621094E0,1.4901093E1,6.415405E1,0E0,0E0,0E0,2.7859032E1,1.1104358E2,7.660803E1,0E0,2.4044209E1,4.9652954E1,6.9618E1,4.309018E1,4.7905884E1,1.6786549E1,0E0,7.599228E1,1.1173126E2,7.695679E1,5.11797E1,1.0268386E2,5.5385437E1,6.694629E1,1.281265E2,0E0,0E0,0E0,0E0,0E0,0E0,0E0,0E0,0E0,0E0,0E0,0E0,0E0,0E0,0E0,0E0,0E0,0E0],"parents":[2147483647,0,0,1,1,2,2,3,3,4,4,8,8,9,9,10,10,12,12,13,13,14,14,15,15,16,16,17,17,19,19,20,20,21,21,22,22,23,23,24,24,25,25,26,26],"right_children":[2,4,6,8,10,-1,-1,-1,12,14,16,-1,18,20,22,24,26,28,-1,30,32,34,36,38,40,42,44,-1,-1,-1,-1,-1,-1,-1,-1,-1,-1,-1,-1,-1,-1,-1,-1,-1,-1],"split_conditions":[4.99165E3,1.569E2,5.58706E3,1.3946E2,6.1E1,4.4138172E-1,4.6456268E-1,-4.6206567E-1,4E0,6E1,1E0,-4.5656693E-1,5E0,7E0,4.2235E3,3.2993E2,4E0,5.6E1,-4.3759102E-1,3E0,1.3E1,2E0,4.85315E3,2.1309E2,1.84495E3,2.7239E2,4.85315E3,1.5196314E-1,-4.0255463E-1,-7.666269E-2,-1.9663191E-1,-6.5817875E-3,-8.0048144E-2,-4.30591E-2,2.370469E-1,-5.439842E-1,1.8283685E-1,6.276202E-2,-5.477933E-1,2.175317E-4,-8.384639E-2,-3.6531338E-1,-1.262344E-1,-7.745217E-2,-5.5503535E-1],"split_indices":[1,1,1,1,0,0,0,0,4,0,3,0,4,0,1,1,4,0,0,2,0,3,1,1,1,1,1,0,0,0,0,0,0,0,0,0,0,0,0,0,0,0,0,0,0],"split_type":[0,0,0,0,0,0,0,0,0,0,0,0,0,0,0,0,0,0,0,0,0,0,0,0,0,0,0,0,0,0,0,0,0,0,0,0,0,0,0,0,0,0,0,0,0],"sum_hessian":[3.8084645E4,3.2030621E4,6.0540225E3,2.3127075E2,3.1799352E4,1.4231168E3,4.6309053E3,1.4429263E2,8.697813E1,1.9476076E4,1.2323274E4,4.5454865E1,4.152326E1,1.9074287E4,4.0178882E2,3.1892622E3,9.134012E3,2.8565937E1,1.295732E1,2.0587952E3,1.7015492E4,3.6439966E2,3.7389153E1,9.797261E1,3.0912898E3,5.9093257E3,3.2246865E3,2.3405659E1,5.160279E0,1.312895E3,7.4590015E2,2.1298684E3,1.4885624E4,1.483322E2,2.1606746E2,2.4843796E1,1.254536E1,4.7288506E1,5.0684105E1,1.0885894E3,2.0027003E3,1.0667048E2,5.8026553E3,3.1742783E3,5.040802E1],"tree_param":{"num_deleted":"0","num_feature":"5","num_nodes":"45","size_leaf_vector":"1"}},{"base_weights":[6.941955E-3,-2.0302582E-1,1.3232672E0,-1.1431965E0,-1.9712006E-1,3.7619463E-1,4.0337127E-1,-4.0078947E-1,-8.264423E-1,-1.8332964E-1,-3.0458504E-1,-3.9517376E-1,-3.1853768E-1,-2.0555364E-1,-9.854881E-2,-1.1634802E0,-2.753995E-1,8.898532E-2,-3.7647495E-1,-2.8867206E-1,-1.7241804E-1,-8.2139546E-1,-8.076317E-2,-5.015756E-1,-6.189708E-1,3.4167013E-1,-3.093997E-1,1.18487634E-1,-4.9511024E-1,-5.807375E-2,-1.47929E-1,3.960576E-3,-5.8043893E-2,-3.5830998E-1,4.2465365E-1,2.722848E-1,-2.7992152E-2,-1.1610789E-3,-5.045967E-1,1.6600567E-1,-5.1092035E-1,-3.0539393E-1,-8.424879E-2],"categories":[],"categories_nodes":[],"categories_segments":[],"categories_sizes":[],"default_left":[0,0,0,0,0,0,0,0,0,0,0,0,0,0,0,0,0,0,0,0,0,0,0,0,0,0,0,0,0,0,0,0,0,0,0,0,0,0,0,0,0,0,0],"id":2,"left_children":[1,3,5,7,9,-1,-1,-1,11,13,15,-1,17,19,21,23,25,27,-1,29,31,33,35,-1,37,39,41,-1,-1,-1,-1,-1,-1,-1,-1,-1,-1,-1,-1,-1,-1,-1,-1],"loss_changes":[1.01777705E4,1.7611267E2,5.7910156E0,1.0988373E1,4.671814E1,0E0,0E0,0E0,1.8911518E1,5.268878E1,8.962106E1,0E0,1.5157498E1,6.0992737E1,7.465465E1,3.1523895E1,7.2937256E1,1.5769474E1,0E0,1.2267865E2,6.1963013E1,1.1804364E2,7.042673E1,0E0,3.8163208E1,7.961374E1,6.633115E1,0E0,0E0,0E0,0E0,0E0,0E0,0E0,0E0,0E0,0E0,0E0,0E0,0E0,0E0,0E0,0E0],"parents":[2147483647,0,0,1,1,2,2,3,3,4,4,8,8,9,9,10,10,12,12,13,13,14,14,15,15,16,16,17,17,19,19,20,20,21,21,22,22,24,24,25,25,26,26],"right_children":[2,4,6,8,10,-1,-1,-1,12,14,16,-1,18,20,22,24,26,28,-1,30,32,34,36,-1,38,40,42,-1,-1,-1,-1,-1,-1,-1,-1,-1,-1,-1,-1,-1,-1,-1,-1],"split_conditions":[4.99165E3,1.569E2,5.58706E3,1.3946E2,8.9E1,3.7619463E-1,4.0337127E-1,-4.0078947E-1,4E0,4E0,3.6881E2,-3.9517376E-1,5E0,2.6E1,3.1029E2,3E0,5.5954E2,3E0,-3.7647495E-1,1.7E1,3.2E1,8.5E1,3.4976E2,-5.015756E-1,3E0,4E0,7.7237E2,1.18487634E-1,-4.9511024E-1,-5.807375E-2,-1.47929E-1,3.960576E-3,-5.8043893E-2,-3.5830998E-1,4.2465365E-1,2.722848E-1,-2.7992152E-2,-1.1610789E-3,-5.045967E-1,1.6600567E-1,-5.1092035E-1,-3.0539393E-1,-8.424879E-2],"split_indices":[1,1,1,1,0,0,0,0,4,2,1,0,4,0,1,2,1,3,0,0,0,0,1,0,4,2,1,0,0,0,0,0,0,0,0,0,0,0,0,0,0,0,0],"split_type":[0,0,0,0,0,0,0,0,0,0,0,0,0,0,0,0,0,0,0,0,0,0,0,0,0,0,0,0,0,0,0,0,0,0,0,0,0,0,0,0,0,0,0],"sum_hessian":[3.6822523E4,3.1757684E4,5.0648403E3,1.9704164E2,3.1560643E4,1.2051722E3,3.859668E3,1.2049429E2,7.654735E1,2.797364E4,3.5870012E3,3.8118652E1,3.8428696E1,2.2162623E4,5.811017E3,1.1660452E2,3.4703967E3,2.7406176E1,1.1022519E1,6.31476E3,1.5847864E4,1.3846149E2,5.672555E3,5.92288E1,5.7375717E1,1.8075853E2,3.2896382E3,2.3963612E1,3.442565E0,4.311235E3,2.0035248E3,1.6149926E3,1.4232871E4,1.1907377E2,1.938772E1,7.019668E1,5.602359E3,3.698089E1,2.039483E1,1.6446193E2,1.6296597E1,1.26157234E2,3.163481E3],"tree_param":{"num_deleted":"0","num_feature":"5","num_nodes":"43","size_leaf_vector":"1"}},{"base_weights":[9.966151E-3,-1.4407638E-1,1.2027878E0,-1.0162379E0,-1.3950503E-1,3.3491725E-1,3.6900875E-1,-3.6594018E-1,-7.078879E-1,-1.6653956E-1,-8.784137E-2,-3.5936877E-1,-2.6870602E-1,-1.2585653E-1,-2.3944949E-1,-7.383973E-2,-6.3874745E-1,4.9574982E-2,-3.384271E-1,-1.4889826E-1,7.673987E-2,-5.1451325E-1,-2.1011177E-1,1.2243733E-1,-1.02515794E-1,-8.987096E-1,1.1200519E0,9.80044E-2,-3.4669963E-1,-6.767467E-2,-2.6828146E-2,6.633958E-2,-2.1719775E-1,-3.9531732E-1,-1.19614124E-1,-2.9238454E-1,-5.9099946E-2,5.5231927E-3,1.8798892E-1,-1.1719971E-1,-2.3273611E-2,-5.141197E-1,-1.7345428E-1,4.9361992E-1,-4.0232086E-1],"categories":[],"categories_nodes":[],"categories_segments":[],"categories_sizes":[],"default_left":[0,0,0,0,0,0,0,0,0,0,0,0,0,0,0,0,0,0,0,0,0,0,0,0,0,0,0,0,0,0,0,0,0,0,0,0,0,0,0,0,0,0,0,0,0],"id":3,"left_children":[1,3,5,7,9,-1,-1,-1,11,13,15,-1,17,19,21,23,25,27,-1,29,31,33,35,37,39,41,43,-1,-1,-1,-1,-1,-1,-1,-1,-1,-1,-1,-1,-1,-1,-1,-1,-1,-1],"loss_changes":[6.5327603E3,1.25395996E2,8.196777E0,9.431641E0,4.3735962E1,0E0,0E0,0E0,1.4226772E1,6.096216E1,8.2971344E1,0E0,1.0160068E1,6.163217E1,5.9311768E1,5.9094444E1,1.2291492E2,9.700448E0,0E0,5.4033142E1,1.5608876E2,6.541713E1,6.652182E1,7.019566E1,6.578588E1,5.983815E1,4.717493E1,0E0,0E0,0E0,0E0,0E0,0E0,0E0,0E0,0E0,0E0,0E0,0E0,0E0,0E0,0E0,0E0,0E0,0E0],"parents":[2147483647,0,0,1,1,2,2,3,3,4,4,8,8,9,9,10,10,12,12,13,13,14,14,15,15,16,16,17,17,19,19,20,20,21,21,22,22,23,23,24,24,25,25,26,26],"right_children":[2,4,6,8,10,-1,-1,-1,12,14,16,-1,18,20,22,24,26,28,-1,30,32,34,36,38,40,42,44,-1,-1,-1,-1,-1,-1,-1,-1,-1,-1,-1,-1,-1,-1,-1,-1,-1,-1],"split_conditions":[4.99165E3,1.569E2,5.58706E3,1.3946E2,4E0,3.3491725E-1,3.6900875E-1,-3.6594018E-1,4E0,6.3E1,9.8E1,-3.5936877E-1,5E0,5.7E1,6.7E1,7.3315E2,4.67545E3,5.6E1,-3.384271E-1,2.34503E3,4E0,9.2567E2,2.7239E2,6.5575E2,9E0,9.9E1,2E0,9.80044E-2,-3.4669963E-1,-6.767467E-2,-2.6828146E-2,6.633958E-2,-2.1719775E-1,-3.9531732E-1,-1.19614124E-1,-2.9238454E-1,-5.9099946E-2,5.5231927E-3,1.8798892E-1,-1.1719971E-1,-2.3273611E-2,-5.141197E-1,-1.7345428E-1,4.9361992E-1,-4.0232086E-1],"split_indices":[1,1,1,1,4,0,0,0,4,0,0,0,4,0,0,1,1,0,0,1,2,1,1,1,0,0,3,0,0,0,0,0,0,0,0,0,0,0,0,0,0,0,0,0,0],"split_type":[0,0,0,0,0,0,0,0,0,0,0,0,0,0,0,0,0,0,0,0,0,0,0,0,0,0,0,0,0,0,0,0,0,0,0,0,0,0,0,0,0,0,0,0,0],"sum_hessian":[3.555141E4,3.1486129E4,4.0652803E3,1.6301718E2,3.1323113E4,9.845905E2,3.08069E3,9.6412704E1,6.660447E1,2.0561482E4,1.0761629E4,3.0664093E1,3.5940376E1,1.31991875E4,7.362296E3,1.0496E4,2.6562872E2,2.6914612E1,9.025764E0,1.185155E4,1.3476376E3,7.0797205E2,6.6543237E3,1.3375686E3,9.158432E3,2.3184894E2,3.3779778E1,2.247594E1,4.4386716E0,5.175413E3,6.6761367E3,1.1423645E3,2.0527304E2,8.7899826E1,6.200722E2,1.1096704E2,6.5433564E3,1.109657E3,2.279117E2,7.282926E2,8.43014E3,6.4216415E1,1.6763252E2,2.8110739E1,5.66904E0],"tree_param":{"num_deleted":"0","num_feature":"5","num_nodes":"45","size_leaf_vector":"1"}},{"base_weights":[1.127155E-2,-1.0232997E-1,1.123128E0,-9.2561954E-1,-9.879541E-2,3.0406484E-1,3.476519E-1,-3.4380046E-1,-6.2021405E-1,-1.2622863E-1,-6.0277145E-2,-3.357073E-1,-2.3338203E-1,-5.956793E-2,-1.6888551E-1,1.0873202E-1,-1.1825704E-1,-4.807071E-3,-3.934661E-1,-1.04629636E-1,1.538897E-1,-9.168847E-1,-1.4936636E-1,6.539653E-2,3.081332E-1,-6.844408E-1,-1.0984437E-1,7.9794124E-2,-2.9912075E-1,-2.2867106E-2,-1.12937026E-1,6.752584E-2,-2.599697E-1,-4.3762305E-1,-1.4685932E-1,-6.0305964E-2,1.0958827E-2,-1.3018133E-1,3.6012087E-2,-2.6802823E-1,1.7667638E-1,-3.7379134E-1,9.177181E-2,2.4566943E-2,-4.1801445E-2],"categories":[],"categories_nodes":[],"categories_segments":[],"categories_sizes":[],"default_left":[0,0,0,0,0,0,0,0,0,0,0,0,0,0,0,0,0,0,0,0,0,0,0,0,0,0,0,0,0,0,0,0,0,0,0,0,0,0,0,0,0,0,0,0,0],"id":4,"left_children":[1,3,5,7,9,-1,-1,-1,11,13,15,-1,17,19,21,23,25,27,-1,29,31,33,35,37,39,41,43,-1,-1,-1,-1,-1,-1,-1,-1,-1,-1,-1,-1,-1,-1,-1,-1,-1,-1],"loss_changes":[4.3490303E3,9.081595E1,1.1315918E1,8.269669E0,3.286319E1,0E0,0E0,0E0,1.0950565E1,5.1648865E1,1.2682779E2,0E0,8.370153E0,6.821848E1,1.6159924E2,2.8548847E1,4.5823563E1,8.070091E0,0E0,4.518242E1,9.00184E1,6.4477356E1,1.0368251E2,7.419178E1,1.9957419E2,7.873353E1,5.371319E1,0E0,0E0,0E0,0E0,0E0,0E0,0E0,0E0,0E0,0E0,0E0,0E0,0E0,0E0,0E0,0E0,0E0,0E0],"parents":[2147483647,0,0,1,1,2,2,3,3,4,4,8,8,9,9,10,10,12,12,13,13,14,14,15,15,16,16,17,17,19,19,20,20,21,21,22,22,23,23,24,24,25,25,26,26],"right_children":[2,4,6,8,10,-1,-1,-1,12,14,16,-1,18,20,22,24,26,28,-1,30,32,34,36,38,40,42,44,-1,-1,-1,-1,-1,-1,-1,-1,-1,-1,-1,-1,-1,-1,-1,-1,-1,-1],"split_conditions":[4.99165E3,1.569E2,5.58706E3,1.3946E2,3.03991E3,3.0406484E-1,3.476519E-1,-3.4380046E-1,4E0,1.25613E3,3.50292E3,-3.357073E-1,3E0,1.08032E3,1.31421E3,5E0,2E0,5E0,-3.934661E-1,9.8241E2,9.2E1,2E0,4E0,3.09498E3,3E1,3E0,1.4E1,7.9794124E-2,-2.9912075E-1,-2.2867106E-2,-1.12937026E-1,6.752584E-2,-2.599697E-1,-4.3762305E-1,-1.4685932E-1,-6.0305964E-2,1.0958827E-2,-1.3018133E-1,3.6012087E-2,-2.6802823E-1,1.7667638E-1,-3.7379134E-1,9.177181E-2,2.4566943E-2,-4.1801445E-2],"split_indices":[1,1,1,1,1,0,0,0,4,1,1,0,3,1,1,4,0,4,0,1,0,3,2,1,0,3,0,0,0,0,0,0,0,0,0,0,0,0,0,0,0,0,0,0,0],"split_type":[0,0,0,0,0,0,0,0,0,0,0,0,0,0,0,0,0,0,0,0,0,0,0,0,0,0,0,0,0,0,0,0,0,0,0,0,0,0,0,0,0,0,0,0,0],"sum_hessian":[3.442988E4,3.1239008E4,3.1908699E3,1.324273E2,3.1106582E4,7.915198E2,2.39935E3,7.532215E1,5.710516E1,1.8166139E4,1.2940442E4,2.4115732E1,3.2989426E1,7.089556E3,1.1076583E4,3.305158E3,9.635284E3,2.8047705E1,4.941722E0,5.8542188E3,1.2353376E3,2.8052515E2,1.0796058E4,2.716183E3,5.88975E2,1.3989372E2,9.495391E3,2.260953E1,5.4381757E0,5.3014927E3,5.527258E2,1.1554988E3,7.9838875E1,1.22627464E2,1.5789769E2,8.448463E3,2.3475945E3,2.6723648E2,2.4489465E3,1.1115096E2,4.7782404E2,8.910994E1,5.0783787E1,1.2656746E3,8.229716E3],"tree_param":{"num_deleted":"0","num_feature":"5","num_nodes":"45","size_leaf_vector":"1"}},{"base_weights":[1.127002E-2,-7.2715044E-2,1.0647261E0,-8.475062E-1,-6.999275E-2,9.2597336E-1,3.3357972E-1,-3.28628E-1,-5.4157823E-1,-7.228158E-2,3.9591658E-1,9.033151E-1,3.0012736E-1,-3.1846705E-1,-2.0265985E-1,-1.1263575E-1,-5.3223144E-2,-3.0733728E-1,1.388502E0,4.9298027E-1,2.7246305E-1,-4.4353923E-1,-1.8378362E-2,-1.2551814E-1,3.0324498E-1,-4.6317916E-2,-3.690061E-1,3.526693E-1,-4.8579657E-1,-3.851555E-1,1.549247E0,1.9462295E-1,7.124378E-2,3.9160582E-1,-1.5979558E-1,-7.725495E-2,-2.5076972E-2,-4.5342103E-2,1.594092E-1,1.4451493E-2,-1.8631915E-2,-2.6977158E-1,7.7245855E-3,-4.703888E-1,2.2173454E-1,5.094446E-1,-3.524686E-1],"categories":[],"categories_nodes":[],"categories_segments":[],"categories_sizes":[],"default_left":[0,0,0,0,0,0,0,0,0,0,0,0,0,0,0,0,0,0,0,0,0,0,0,0,0,0,0,0,0,0,0,0,0,0,0,0,0,0,0,0,0,0,0,0,0,0,0],"id":5,"left_children":[1,3,5,7,9,11,-1,-1,13,15,17,19,-1,-1,21,23,25,27,29,31,-1,-1,33,35,37,39,41,43,-1,-1,45,-1,-1,-1,-1,-1,-1,-1,-1,-1,-1,-1,-1,-1,-1,-1,-1],"loss_changes":[2.9649688E3,6.54059E1,1.51779785E1,7.642235E0,3.301213E1,1.6601562E-1,0E0,0E0,8.699067E0,2.3666412E1,1.060815E2,5.494385E-1,0E0,0E0,7.4630694E0,5.293142E1,4.5574265E1,7.799312E1,2.902983E1,1.6590905E-1,0E0,0E0,2.0335524E1,5.298073E1,3.0857504E1,3.0528961E1,9.364238E1,4.591975E1,0E0,0E0,2.6264114E1,0E0,0E0,0E0,0E0,0E0,0E0,0E0,0E0,0E0,0E0,0E0,0E0,0E0,0E0,0E0,0E0],"parents":[2147483647,0,0,1,1,2,2,3,3,4,4,5,5,8,8,9,9,10,10,11,11,14,14,15,15,16,16,17,17,18,18,19,19,22,22,23,23,24,24,25,25,26,26,27,27,30,30],"right_children":[2,4,6,8,10,12,-1,-1,14,16,18,20,-1,-1,22,24,26,28,30,32,-1,-1,34,36,38,40,42,44,-1,-1,46,-1,-1,-1,-1,-1,-1,-1,-1,-1,-1,-1,-1,-1,-1,-1,-1],"split_conditions":[4.99165E3,1.569E2,5.58706E3,1.3946E2,4.97234E3,4E0,3.3357972E-1,-3.28628E-1,4E0,2E0,3E0,2E0,3.0012736E-1,-3.1846705E-1,1.8E1,4.85315E3,4.85315E3,4.8E1,2E0,1E0,2.7246305E-1,-4.4353923E-1,2E1,2.5E1,2E0,1.4E1,4E0,1E0,-4.8579657E-1,-3.851555E-1,5E0,1.9462295E-1,7.124378E-2,3.9160582E-1,-1.5979558E-1,-7.725495E-2,-2.5076972E-2,-4.5342103E-2,1.594092E-1,1.4451493E-2,-1.8631915E-2,-2.6977158E-1,7.7245855E-3,-4.703888E-1,2.2173454E-1,5.094446E-1,-3.524686E-1],"split_indices":[1,1,1,1,1,2,0,0,4,4,3,0,0,0,0,1,1,0,4,0,0,0,0,0,2,0,4,3,0,0,4,0,0,0,0,0,0,0,0,0,0,0,0,0,0,0,0],"split_type":[0,0,0,0,0,0,0,0,0,0,0,0,0,0,0,0,0,0,0,0,0,0,0,0,0,0,0,0,0,0,0,0,0,0,0,0,0,0,0,0,0,0,0,0,0,0,0],"sum_hessian":[3.3510223E4,3.1036797E4,2.4734268E3,1.0758207E2,3.0929215E4,6.3312067E2,1.8403062E3,5.7999382E1,4.9582684E1,3.0778855E4,1.5035927E2,4.9546494E2,1.3765573E2,1.8723835E1,3.0858849E1,9.871695E3,2.090716E4,8.84103E1,6.1948963E1,7.0399904E0,4.8842496E2,3.008407E0,2.7850441E1,9.575772E3,2.9592267E2,2.0460889E4,4.4627173E2,5.930669E1,2.9103611E1,3.1184514E0,5.8830513E1,3.417471E0,3.6225193E0,7.36215E0,2.048829E1,2.3071785E3,7.268594E3,9.902143E1,1.9690123E2,2.9290847E3,1.7531803E4,1.89909E2,2.5636273E2,9.4220085E0,4.988468E1,5.613861E1,2.6919022E0],"tree_param":{"num_deleted":"0","num_feature":"5","num_nodes":"47","size_leaf_vector":"1"}},{"base_weights":[1.0647297E-2,-5.148605E-2,1.0174232E0,-3.1751505E-1,-5.0007004E-2,8.439895E-1,3.2395306E-1,-5.8084235E-2,1.6539907E-2,8.179351E-1,2.7951905E-1,-4.1288126E-2,-2.448679E-1,4.7983027E-1,-3.0893873E-2,4.2057112E-1,8.232766E-1,-6.931729E-2,2.8507318E-2,-5.1291585E-1,-1.3151863E-1,-3.4246752E-1,7.37327E-1,-5.327851E-2,6.934311E-1,5.6705844E-2,1.7204203E-1,8.764951E-1,7.7727664E-1,-1.7752815E-2,-9.804355E-2,-1.2624411E-1,1.2732544E-2,-4.4690438E-2,-2.8273028E-1,2.7231738E-1,-6.2792145E-2,-4.4394103E-1,1.0212643E-1,2.4119337E-1,-4.183006E-1,5.1985446E-2,-3.2207873E-2,3.385508E-1,-1.062631E-1,2.351208E-1,3.0312312E-1,1.14309415E-1,2.501385E-1],"categories":[],"categories_nodes":[],"categories_segments":[],"categories_sizes":[],"default_left":[0,0,0,0,0,0,0,0,0,0,0,0,0,0,0,0,0,0,0,0,0,0,0,0,0,0,0,0,0,0,0,0,0,0,0,0,0,0,0,0,0,0,0,0,0,0,0,0,0],"id":6,"left_children":[1,3,5,-1,7,9,-1,11,13,15,-1,17,19,21,23,25,27,29,31,33,35,37,39,41,43,-1,-1,45,47,-1,-1,-1,-1,-1,-1,-1,-1,-1,-1,-1,-1,-1,-1,-1,-1,-1,-1,-1,-1],"loss_changes":[2.0516736E3,4.595276E1,1.9727905E1,0E0,1.6582039E1,4.0182495E-1,0E0,8.62921E1,7.340663E1,5.04364E-1,0E0,4.9380325E1,6.888359E1,6.5941635E1,4.917202E1,1.5218127E-1,2.8424072E-1,4.700734E1,4.530258E1,1.0523749E2,1.2923561E2,5.849362E1,3.4732483E1,3.604841E1,4.1839813E1,0E0,0E0,1.3821564E0,4.6177216E0,0E0,0E0,0E0,0E0,0E0,0E0,0E0,0E0,0E0,0E0,0E0,0E0,0E0,0E0,0E0,0E0,0E0,0E0,0E0,0E0],"parents":[2147483647,0,0,1,1,2,2,4,4,5,5,7,7,8,8,9,9,11,11,12,12,13,13,14,14,15,15,16,16,17,17,18,18,19,19,20,20,21,21,22,22,23,23,24,24,27,27,28,28],"right_children":[2,4,6,-1,8,10,-1,12,14,16,-1,18,20,22,24,26,28,30,32,34,36,38,40,42,44,-1,-1,46,48,-1,-1,-1,-1,-1,-1,-1,-1,-1,-1,-1,-1,-1,-1,-1,-1,-1,-1,-1,-1],"split_conditions":[4.99165E3,1.3946E2,5.58706E3,-3.1751505E-1,4.47746E3,4E0,3.2395306E-1,4.09393E3,4.51445E3,2E0,2.7951905E-1,3.03991E3,3.4E1,2E0,9.9E1,4E0,4E1,2.9199E3,4E0,4.26389E3,3.7E1,4.49719E3,9.3E1,1E0,2E0,5.6705844E-2,1.7204203E-1,3.1E1,5.2E1,-1.7752815E-2,-9.804355E-2,-1.2624411E-1,1.2732544E-2,-4.4690438E-2,-2.8273028E-1,2.7231738E-1,-6.2792145E-2,-4.4394103E-1,1.0212643E-1,2.4119337E-1,-4.183006E-1,5.1985446E-2,-3.2207873E-2,3.385508E-1,-1.062631E-1,2.351208E-1,3.0312312E-1,1.14309415E-1,2.501385E-1],"split_indices":[1,1,1,0,1,2,0,1,1,0,0,1,0,4,0,4,0,1,0,1,0,1,0,4,3,0,0,0,0,0,0,0,0,0,0,0,0,0,0,0,0,0,0,0,0,0,0,0,0],"split_type":[0,0,0,0,0,0,0,0,0,0,0,0,0,0,0,0,0,0,0,0,0,0,0,0,0,0,0,0,0,0,0,0,0,0,0,0,0,0,0,0,0,0,0,0,0,0,0,0,0],"sum_hessian":[3.2796414E4,3.0890926E4,1.9054899E3,4.4261395E1,3.0846664E4,5.0814313E2,1.3973467E3,2.750797E4,3.3386934E3,3.99758E2,1.0838513E2,2.5239578E4,2.2683923E3,3.0923633E2,3.029457E3,6.359995E0,3.93398E2,1.800782E4,7.2317573E3,6.7310675E2,1.5952855E3,7.366436E1,2.3557196E2,2.9395396E3,8.991748E1,3.4188218E0,2.941173E0,1.7401779E2,2.1938022E2,1.7326652E4,6.811681E2,2.1664929E2,7.015108E3,3.6509464E2,3.0801215E2,1.1035046E2,1.484935E3,2.7198654E1,4.6465706E1,2.2903358E2,6.5383697E0,5.660339E2,2.3735056E3,6.347852E1,2.6438967E1,1.0685496E2,6.716283E1,2.8351522E1,1.910287E2],"tree_param":{"num_deleted":"0","num_feature":"5","num_nodes":"49","size_leaf_vector":"1"}},{"base_weights":[9.496583E-3,-3.6538035E-2,9.7508866E-1,-7.078526E-1,-3.4832455E-2,7.627434E-1,3.171915E-1,-3.123321E-1,-3.8454273E-1,2.1758582E-1,-3.73326E-2,8.804842E-1,7.318882E-1,1.5893696E-1,-6.771776E-1,3.8794696E-1,-4.1599318E-1,-1.6407126E-1,-3.0022243E-2,6.596909E-1,9.1495395E-1,3.9966702E-1,7.600443E-1,-4.22451E-1,7.407206E-1,1.7489034E-1,-3.7466308E-1,-1.6574939E-1,7.812956E-1,-7.44689E-1,-4.5120277E-2,1.2745225E-1,-4.2397358E-2,2.2313881E-1,4.621568E-2,7.640882E-1,2.9998517E-1,-1.1610019E-1,4.9026194E-1,8.1994474E-1,6.828656E-1,4.2912936E-1,-2.6618552E-1,-3.5731664E-1,3.2467234E-1,1.2309951E-1,-4.5934817E-1,3.703676E-1,6.57007E-2,-1.6715983E-1,-4.7987375E-1,3.5757828E-1,-3.6177047E-2,6.883234E-3,1.5875633E-1,-4.1317027E-2,-8.081601E-3,2.6906547E-1,8.75671E-2,1.934873E-1,-2.142276E-1,2.6077604E-1,2.1338056E-1,2.1556818E-1,7.553096E-2],"categories":[],"categories_nodes":[],"categories_segments":[],"categories_sizes":[],"default_left":[0,0,0,0,0,0,0,0,0,0,0,0,0,0,0,0,0,0,0,0,0,0,0,0,0,0,0,0,0,0,0,0,0,0,0,0,0,0,0,0,0,0,0,0,0,0,0,0,0,0,0,0,0,0,0,0,0,0,0,0,0,0,0,0,0],"id":7,"left_children":[1,3,5,7,9,11,-1,-1,13,15,17,19,21,23,25,27,-1,29,31,33,35,37,39,-1,41,43,-1,45,47,49,51,53,55,-1,-1,57,-1,-1,59,61,63,-1,-1,-1,-1,-1,-1,-1,-1,-1,-1,-1,-1,-1,-1,-1,-1,-1,-1,-1,-1,-1,-1,-1,-1],"loss_changes":[1.4327006E3,3.520044E1,2.479956E1,7.994335E0,1.9374687E1,8.558502E-1,0E0,0E0,6.6493416E0,8.2834E1,2.8149448E1,1.1547089E-2,2.812439E0,1.4906566E1,1.3334927E1,5.9586708E1,0E0,1.14405075E2,5.5996838E1,5.0199795E-1,9.92775E-2,2.1950145E0,8.547821E-1,0E0,1.4456459E1,1.5776437E1,0E0,9.0465775E1,4.0453148E1,4.425688E1,1.286341E2,8.7887856E1,3.9252132E1,0E0,0E0,1.5254402E0,0E0,0E0,5.2435775E0,2.782669E-1,1.96875E0,0E0,0E0,0E0,0E0,0E0,0E0,0E0,0E0,0E0,0E0,0E0,0E0,0E0,0E0,0E0,0E0,0E0,0E0,0E0,0E0,0E0,0E0,0E0,0E0],"parents":[2147483647,0,0,1,1,2,2,3,3,4,4,5,5,8,8,9,9,10,10,11,11,12,12,13,13,14,14,15,15,17,17,18,18,19,19,20,20,21,21,22,22,24,24,25,25,27,27,28,28,29,29,30,30,31,31,32,32,35,35,38,38,39,39,40,40],"right_children":[2,4,6,8,10,12,-1,-1,14,16,18,20,22,24,26,28,-1,30,32,34,36,38,40,-1,42,44,-1,46,48,50,52,54,56,-1,-1,58,-1,-1,60,62,64,-1,-1,-1,-1,-1,-1,-1,-1,-1,-1,-1,-1,-1,-1,-1,-1,-1,-1,-1,-1,-1,-1,-1,-1],"split_conditions":[4.99165E3,1.569E2,5.58706E3,4E0,1E0,1.9E1,3.171915E-1,-3.123321E-1,1E0,4.09393E3,7E0,1E0,2.7E1,5.5E1,2E1,3E0,-4.1599318E-1,1.14107E3,1.3E1,1.5E1,1.2E1,2E0,2E0,-4.22451E-1,5.6E1,1.9E1,-3.7466308E-1,3E0,1.59198E3,9.2567E2,1.2756E3,1.2E1,2.6E1,2.2313881E-1,4.621568E-2,2E0,2.9998517E-1,-1.1610019E-1,3E0,4E0,9.3E1,4.2912936E-1,-2.6618552E-1,-3.5731664E-1,3.2467234E-1,1.2309951E-1,-4.5934817E-1,3.703676E-1,6.57007E-2,-1.6715983E-1,-4.7987375E-1,3.5757828E-1,-3.6177047E-2,6.883234E-3,1.5875633E-1,-4.1317027E-2,-8.081601E-3,2.6906547E-1,8.75671E-2,1.934873E-1,-2.142276E-1,2.6077604E-1,2.1338056E-1,2.1556818E-1,7.553096E-2],"split_indices":[1,1,1,4,0,0,0,0,3,1,0,2,0,0,0,4,0,1,0,0,0,2,3,0,0,0,0,2,1,1,1,0,0,0,0,3,0,0,3,4,0,0,0,0,0,0,0,0,0,0,0,0,0,0,0,0,0,0,0,0,0,0,0,0,0],"split_type":[0,0,0,0,0,0,0,0,0,0,0,0,0,0,0,0,0,0,0,0,0,0,0,0,0,0,0,0,0,0,0,0,0,0,0,0,0,0,0,0,0,0,0,0,0,0,0,0,0,0,0,0,0,0,0,0,0,0,0,0,0,0,0,0,0],"sum_hessian":[3.2229451E4,3.076375E4,1.4657002E3,7.691296E1,3.0686838E4,4.119662E2,1.053734E3,3.6780743E1,4.0132217E1,3.0012164E2,3.0386717E4,7.9825134E1,3.3214105E2,1.4205928E1,2.5926289E1,2.7199527E2,2.812636E1,1.6559692E3,2.8730746E4,1.3498665E1,6.632647E1,2.7137169E1,3.050039E2,3.461503E0,1.0744425E1,1.0689142E1,1.5237145E1,1.1321171E2,1.5878357E2,2.8067783E2,1.3752914E3,2.0926233E3,2.6638123E4,1.1169749E1,2.3289154E0,2.7501665E1,3.8824806E1,2.4645803E0,2.4672588E1,1.6630556E2,1.3869833E2,7.6323233E0,3.1121016E0,4.1416054E0,6.547537E0,8.011137E1,3.3100338E1,8.7253334E1,7.1530235E1,2.3154787E2,4.912997E1,7.8228745E1,1.2970626E3,1.6614645E3,4.31159E2,3.7159292E3,2.2922193E4,2.0763067E1,6.7385983E0,2.2275806E1,2.396783E0,1.0958564E2,5.6719913E1,1.2747641E2,1.1221926E1],"tree_param":{"num_deleted":"0","num_feature":"5","num_nodes":"65","size_leaf_vector":"1"}},{"base_weights":[8.105697E-3,-2.6020752E-2,9.3343925E-1,-6.711078E-1,-2.4712406E-2,6.79883E-1,3.12343E-1,-3.0433476E-1,-3.611601E-1,-4.7154995E-3,-5.6628205E-2,6.4259243E-1,8.0954945E-1,-1.433204E-1,-2.9276186E-1,-1.1745526E-2,3.2203373E-1,-1.7226666E-1,-3.0308815E-2,1.9008885E-1,6.499254E-1,2.589374E-1,5.8366185E-1,-6.6035795E-1,3.6543334E-1,9.259585E-2,-3.3252887E-2,4.126006E-1,-6.32766E-1,-1.5497439E-1,-4.5123354E-1,-7.797075E-2,5.370019E-2,-8.406091E-3,1.1698262E-1,8.3221143E-1,6.193321E-1,7.1787786E-1,-7.475634E-2,2.975011E-2,-4.093041E-1,-1.3346962E-3,1.1328476E-1,-5.8474872E-2,6.0541014E-4,6.94917E-2,4.0120023E-1,-4.173495E-1,2.0254846E-1,-5.947885E-2,1.17423914E-1,-1.3594803E-1,-1.8322596E-2,-1.825936E-1,2.4784105E-2,9.6474156E-2,2.549999E-1,9.418107E-2,1.9752075E-1,1.0786932E-1,2.3774496E-1],"categories":[],"categories_nodes":[],"categories_segments":[],"categories_sizes":[],"default_left":[0,0,0,0,0,0,0,0,0,0,0,0,0,0,0,0,0,0,0,0,0,0,0,0,0,0,0,0,0,0,0,0,0,0,0,0,0,0,0,0,0,0,0,0,0,0,0,0,0,0,0,0,0,0,0,0,0,0,0,0,0],"id":8,"left_children":[1,3,5,7,9,11,-1,-1,13,15,17,19,21,23,-1,25,27,29,31,33,35,-1,37,39,-1,41,43,45,47,49,-1,51,53,-1,-1,55,57,59,-1,-1,-1,-1,-1,-1,-1,-1,-1,-1,-1,-1,-1,-1,-1,-1,-1,-1,-1,-1,-1,-1,-1],"loss_changes":[1.00400214E3,2.5863214E1,3.0174805E1,6.2343407E0,1.9530676E1,1.1239471E0,0E0,0E0,4.433301E0,4.3223656E1,3.587199E1,7.6882935E-1,3.6875916E-1,1.937897E1,0E0,4.133957E1,3.4532314E1,5.0096146E1,3.845768E1,2.594766E-1,9.5812225E-1,0E0,2.0691538E0,1.070791E1,0E0,8.7080475E1,8.7086105E1,6.0366707E1,3.538964E1,5.112916E1,0E0,3.8816235E1,6.66357E1,0E0,0E0,4.514885E-2,2.539627E0,1.1124897E-1,0E0,0E0,0E0,0E0,0E0,0E0,0E0,0E0,0E0,0E0,0E0,0E0,0E0,0E0,0E0,0E0,0E0,0E0,0E0,0E0,0E0,0E0,0E0],"parents":[2147483647,0,0,1,1,2,2,3,3,4,4,5,5,8,8,9,9,10,10,11,11,12,12,13,13,15,15,16,16,17,17,18,18,19,19,20,20,22,22,23,23,25,25,26,26,27,27,28,28,29,29,31,31,32,32,35,35,36,36,37,37],"right_children":[2,4,6,8,10,12,-1,-1,14,16,18,20,22,24,-1,26,28,30,32,34,36,-1,38,40,-1,42,44,46,48,50,-1,52,54,-1,-1,56,58,60,-1,-1,-1,-1,-1,-1,-1,-1,-1,-1,-1,-1,-1,-1,-1,-1,-1,-1,-1,-1,-1,-1,-1],"split_conditions":[4.99165E3,1.569E2,5.58706E3,4E0,6.1E1,4E0,3.12343E-1,-3.0433476E-1,5.6E1,6E1,1E0,2E0,7.5E1,5.5E1,-2.9276186E-1,1E0,4.2235E3,4.89148E3,4E0,4E0,1.6E1,2.589374E-1,5E0,2E1,3.6543334E-1,4.7E1,2E0,3.92176E3,4.85315E3,4.59634E3,-4.5123354E-1,4.254E2,6.3E1,-8.406091E-3,1.1698262E-1,3E0,2.7E1,7.8E1,-7.475634E-2,2.975011E-2,-4.093041E-1,-1.3346962E-3,1.1328476E-1,-5.8474872E-2,6.0541014E-4,6.94917E-2,4.0120023E-1,-4.173495E-1,2.0254846E-1,-5.947885E-2,1.17423914E-1,-1.3594803E-1,-1.8322596E-2,-1.825936E-1,2.4784105E-2,9.6474156E-2,2.549999E-1,9.418107E-2,1.9752075E-1,1.0786932E-1,2.3774496E-1],"split_indices":[1,1,1,4,0,2,0,0,0,0,2,0,0,0,0,4,1,1,4,4,0,0,4,0,0,0,4,1,1,1,0,1,0,0,0,0,0,0,0,0,0,0,0,0,0,0,0,0,0,0,0,0,0,0,0,0,0,0,0,0,0],"split_type":[0,0,0,0,0,0,0,0,0,0,0,0,0,0,0,0,0,0,0,0,0,0,0,0,0,0,0,0,0,0,0,0,0,0,0,0,0,0,0,0,0,0,0,0,0,0,0,0,0,0,0,0,0,0,0,0,0,0,0,0,0],"sum_hessian":[3.1792232E4,3.0662371E4,1.1298612E3,6.1026424E1,3.0601346E4,3.390302E2,7.9083105E2,2.7875101E1,3.315132E1,1.8814334E4,1.1787011E4,2.6793176E2,7.109843E1,2.5387676E1,7.763645E0,1.8419014E4,3.9532196E2,2.1843174E3,9.602693E3,4.7020273E0,2.6322974E2,5.518809E1,1.5910334E1,1.8773083E1,6.614593E0,3.1472168E3,1.5271796E4,3.615913E2,3.3730625E1,2.1574224E3,2.6894964E1,6.126779E3,3.4759143E3,2.6594458E0,2.0425818E0,3.406369E1,2.2916606E2,1.3821075E1,2.0892575E0,9.443617E0,9.329466E0,2.348555E3,7.9866174E2,2.7343674E3,1.2537429E4,3.0345795E2,5.8133366E1,2.131027E1,1.2420355E1,1.9996351E3,1.5778725E2,2.62898E2,5.863881E3,1.4454941E2,3.331365E3,1.7889194E0,3.227477E1,2.7017523E1,2.0214853E2,3.3846886E0,1.0436387E1],"tree_param":{"num_deleted":"0","num_feature":"5","num_nodes":"61","size_leaf_vector":"1"}},{"base_weights":[6.7444746E-3,-1.8547555E-2,8.892536E-1,-2.9459035E-1,-1.7910317E-2,5.9451884E-1,3.0879867E-1,-1.9537507E-2,3.227119E-1,7.533813E-1,5.5496645E-1,5.612705E-2,-2.6143128E-2,-4.0884718E-1,5.4918075E-1,4.5381317E-1,8.0431426E-1,2.7668735E-1,5.9665424E-1,4.3462747E-1,-2.6894504E-2,-3.735463E-1,-1.7981136E-2,-5.285133E-1,7.2898597E-1,1.8614857E-1,2.395613E-1,6.047017E-1,2.7855808E-1,1.19531244E-1,6.339491E-1,8.2585216E-1,5.3487253E-1,-1.5996611E-1,2.4038093E-1,5.0344717E-2,-4.0284514E-2,-1.8344936E-1,-7.467264E-3,1.422028E-1,-7.963455E-3,4.6260226E-1,1.16878524E-1,2.0001228E-1,-2.571071E-1,2.3585412E-1,1.5901854E-2,-3.8934997E-1,9.34482E-2,-1.0027793E-1,2.758141E-1,2.648266E-1,7.9279296E-2,-5.84878E-2,1.7573586E-1],"categories":[],"categories_nodes":[],"categories_segments":[],"categories_sizes":[],"default_left":[0,0,0,0,0,0,0,0,0,0,0,0,0,0,0,0,0,0,0,0,0,0,0,0,0,0,0,0,0,0,0,0,0,0,0,0,0,0,0,0,0,0,0,0,0,0,0,0,0,0,0,0,0,0,0],"id":9,"left_children":[1,3,5,-1,7,9,-1,11,13,15,17,19,21,-1,23,25,27,29,31,33,35,37,39,-1,41,43,-1,45,-1,47,49,51,53,-1,-1,-1,-1,-1,-1,-1,-1,-1,-1,-1,-1,-1,-1,-1,-1,-1,-1,-1,-1,-1,-1],"loss_changes":[7.0192346E2,1.875127E1,3.556006E1,0E0,1.6940245E1,1.3703003E0,0E0,1.5199812E1,5.6218582E1,4.58004E-1,2.5226135E0,7.674343E1,7.929465E1,0E0,5.4808876E1,7.863364E-1,5.4948616E-1,1.7237036E0,2.399269E0,1.5631912E2,4.191513E1,5.324199E1,1.1514582E2,0E0,3.2573044E1,4.0845585E0,0E0,1.9661989E0,0E0,6.795744E0,2.9490163E0,1.0692692E0,6.091919E0,0E0,0E0,0E0,0E0,0E0,0E0,0E0,0E0,0E0,0E0,0E0,0E0,0E0,0E0,0E0,0E0,0E0,0E0,0E0,0E0,0E0,0E0],"parents":[2147483647,0,0,1,1,2,2,4,4,5,5,7,7,8,8,9,9,10,10,11,11,12,12,14,14,15,15,16,16,17,17,18,18,19,19,20,20,21,21,22,22,24,24,25,25,27,27,29,29,30,30,31,31,32,32],"right_children":[2,4,6,-1,8,10,-1,12,14,16,18,20,22,-1,24,26,28,30,32,34,36,38,40,-1,42,44,-1,46,-1,48,50,52,54,-1,-1,-1,-1,-1,-1,-1,-1,-1,-1,-1,-1,-1,-1,-1,-1,-1,-1,-1,-1,-1,-1],"split_conditions":[4.99165E3,1.3946E2,5.58706E3,-2.9459035E-1,4.97234E3,1.9E1,3.0879867E-1,5.4078E2,1E0,1E0,3.1E1,1E0,6.5575E2,-4.0884718E-1,1.2E1,2E0,1.2E1,5E0,4E1,2E0,3.3E1,4E0,7.1357E2,-5.285133E-1,1.7E1,1E0,2.395613E-1,2E0,2.7855808E-1,1E0,2.2E1,4E0,4.5E1,-1.5996611E-1,2.4038093E-1,5.0344717E-2,-4.0284514E-2,-1.8344936E-1,-7.467264E-3,1.422028E-1,-7.963455E-3,4.6260226E-1,1.16878524E-1,2.0001228E-1,-2.571071E-1,2.3585412E-1,1.5901854E-2,-3.8934997E-1,9.34482E-2,-1.0027793E-1,2.758141E-1,2.648266E-1,7.9279296E-2,-5.84878E-2,1.7573586E-1],"split_indices":[1,1,1,0,1,0,0,1,3,2,0,4,1,0,0,3,0,4,0,2,0,4,1,0,0,3,0,3,0,3,0,2,0,0,0,0,0,0,0,0,0,0,0,0,0,0,0,0,0,0,0,0,0,0,0],"split_type":[0,0,0,0,0,0,0,0,0,0,0,0,0,0,0,0,0,0,0,0,0,0,0,0,0,0,0,0,0,0,0,0,0,0,0,0,0,0,0,0,0,0,0,0,0,0,0,0,0,0,0,0,0,0,0],"sum_hessian":[3.1445814E4,3.0570662E4,8.751526E2,1.9189226E1,3.0551473E4,2.8362228E2,5.915303E2,3.0407156E4,1.4431581E2,5.2940174E1,2.306821E2,2.4408435E3,2.7966312E4,1.6499268E1,1.2781654E2,9.133059E0,4.3807117E1,3.1050095E1,1.99632E2,4.3831287E2,2.0025308E3,6.409386E2,2.7325375E4,8.592044E0,1.192245E2,6.008046E0,3.1250124E0,1.905445E1,2.4752666E1,2.2491062E1,8.5590315E0,3.976063E1,1.5987137E2,1.2029871E2,3.1801416E2,7.1164374E2,1.290887E3,3.8049988E2,2.604387E2,4.6656525E2,2.6858809E4,3.4068615E1,8.515588E1,4.3602777E0,1.6477684E0,1.4018181E1,5.0362673E0,1.9956017E0,2.049546E1,1.909787E0,6.649245E0,3.5583256E1,4.177378E0,1.0240966E1,1.4963042E2],"tree_param":{"num_deleted":"0","num_feature":"5","num_nodes":"55","size_leaf_vector":"1"}},{"base_weights":[5.5237613E-3,-1.3223474E-2,8.405927E-1,-5.7290953E-1,-1.2376512E-2,5.104481E-1,3.061509E-1,-2.940526E-1,-2.7576932E-1,-2.30133E-2,2.801177E-2,4.6256065E-1,6.842159E-1,-3.2914495E-1,-1.1096741E-1,2.5506204E-1,-2.8597761E-2,3.7513904E-2,-4.6772268E-1,5.449911E-1,3.458456E-1,2.850275E-1,5.8755034E-1,2.748331E-1,-4.4626352E-1,3.3038098E-1,-3.8719895E-1,-4.3360956E-2,7.951239E-2,-4.3170586E-1,4.8396323E-2,6.313262E-1,3.7858602E-1,4.178449E-1,-6.8967646E-1,8.6201614E-1,4.5902058E-1,-3.7047696E-1,4.11018E-2,-1.7402243E-2,1.9547123E-1,-9.428488E-3,-1.5055305E-1,2.3905951E-1,1.4129045E-2,-2.5583977E-1,2.1094258E-1,2.483411E-2,-3.288791E-2,1.413103E-1,2.360228E-1,-1.2900402E-1,2.1850166E-1,5.0575037E-2,2.176113E-1,-5.559885E-1,8.645648E-2,2.815168E-1,3.3191457E-2,1.8462643E-1,4.7974374E-2],"categories":[],"categories_nodes":[],"categories_segments":[],"categories_sizes":[],"default_left":[0,0,0,0,0,0,0,0,0,0,0,0,0,0,0,0,0,0,0,0,0,0,0,0,0,0,0,0,0,0,0,0,0,0,0,0,0,0,0,0,0,0,0,0,0,0,0,0,0,0,0,0,0,0,0,0,0,0,0,0,0],"id":10,"left_children":[1,3,5,7,9,11,-1,-1,13,15,17,19,21,-1,23,25,27,29,-1,31,33,-1,35,-1,37,39,-1,41,43,45,47,49,51,53,55,57,59,-1,-1,-1,-1,-1,-1,-1,-1,-1,-1,-1,-1,-1,-1,-1,-1,-1,-1,-1,-1,-1,-1,-1,-1],"loss_changes":[4.884413E2,1.4458073E1,4.0168884E1,5.3068066E0,1.3090613E1,1.7108955E0,0E0,0E0,3.6734872E0,3.74613E1,9.585561E1,1.6788177E0,7.4095917E-1,0E0,8.83371E0,5.5718975E1,3.7741756E1,3.226919E1,0E0,1.3702583E0,6.481906E0,0E0,1.0045414E0,0E0,8.96246E0,5.6630253E1,0E0,1.1380411E2,6.60316E1,6.9056755E1,3.3550953E1,1.4293823E0,1.1841013E1,5.8794527E0,7.1085057E0,5.5727005E-1,1.2662659E0,0E0,0E0,0E0,0E0,0E0,0E0,0E0,0E0,0E0,0E0,0E0,0E0,0E0,0E0,0E0,0E0,0E0,0E0,0E0,0E0,0E0,0E0,0E0,0E0],"parents":[2147483647,0,0,1,1,2,2,3,3,4,4,5,5,8,8,9,9,10,10,11,11,12,12,14,14,15,15,16,16,17,17,19,19,20,20,22,22,24,24,25,25,27,27,28,28,29,29,30,30,31,31,32,32,33,33,34,34,35,35,36,36],"right_children":[2,4,6,8,10,12,-1,-1,14,16,18,20,22,-1,24,26,28,30,-1,32,34,-1,36,-1,38,40,-1,42,44,46,48,50,52,54,56,58,60,-1,-1,-1,-1,-1,-1,-1,-1,-1,-1,-1,-1,-1,-1,-1,-1,-1,-1,-1,-1,-1,-1,-1,-1],"split_conditions":[4.99165E3,1.569E2,5.58706E3,4E0,4E0,4E0,3.061509E-1,-2.940526E-1,1.9E1,2E0,1E2,2E0,1.8E1,-3.2914495E-1,2E1,4.53368E3,4.44117E3,3.1029E2,-4.6772268E-1,5.6E1,9.3E1,2.850275E-1,1E0,2.748331E-1,5.5E1,2.25011E3,-3.8719895E-1,4.30373E3,4.45919E3,8.5E1,4.07641E3,3.1E1,7.9E1,5.7E1,3E0,5E0,5.9E1,-3.7047696E-1,4.11018E-2,-1.7402243E-2,1.9547123E-1,-9.428488E-3,-1.5055305E-1,2.3905951E-1,1.4129045E-2,-2.5583977E-1,2.1094258E-1,2.483411E-2,-3.288791E-2,1.413103E-1,2.360228E-1,-1.2900402E-1,2.1850166E-1,5.0575037E-2,2.176113E-1,-5.559885E-1,8.645648E-2,2.815168E-1,3.3191457E-2,1.8462643E-1,4.7974374E-2],"split_indices":[1,1,1,4,2,2,0,0,0,0,0,3,0,0,0,1,1,1,0,0,0,0,3,0,0,1,0,1,1,0,1,0,0,0,2,4,0,0,0,0,0,0,0,0,0,0,0,0,0,0,0,0,0,0,0,0,0,0,0,0,0],"split_type":[0,0,0,0,0,0,0,0,0,0,0,0,0,0,0,0,0,0,0,0,0,0,0,0,0,0,0,0,0,0,0,0,0,0,0,0,0,0,0,0,0,0,0,0,0,0,0,0,0,0,0,0,0,0,0,0,0,0,0,0,0],"sum_hessian":[3.1198162E4,3.0514107E4,6.840553E2,4.508607E1,3.0469021E4,2.4263857E2,4.4141675E2,1.8049038E1,2.7037033E1,2.4117729E4,6.3512915E3,1.930886E2,4.9549973E1,3.5727735E0,2.3464258E1,4.7393066E2,2.3643799E4,6.3144624E3,3.6829285E1,1.1101467E2,8.207391E1,1.0857667E1,3.8692307E1,5.3485026E0,1.8115755E1,4.5266006E2,2.127062E1,2.0803531E4,2.8402683E3,1.4225262E2,6.17221E3,7.125296E1,3.9761715E1,7.729605E1,4.7778635E0,1.0520278E1,2.817203E1,7.226842E0,1.0888914E1,2.0526694E2,2.4739311E2,2.0276865E4,5.2666595E2,1.2177693E2,2.7184915E3,1.0393524E2,3.831738E1,5.069596E3,1.1026135E3,3.706059E1,3.4192368E1,1.1936362E1,2.7825354E1,4.354742E1,3.3748627E1,1.772918E0,3.0049458E0,9.323689E0,1.1965889E0,1.780458E1,1.0367448E1],"tree_param":{"num_deleted":"0","num_feature":"5","num_nodes":"61","size_leaf_vector":"1"}},{"base_weights":[4.320649E-3,-6.532367E-3,3.0411467E-1,-1.0692929E-2,3.5206428E-1,-8.360478E-3,-2.21608E-1,2.2394286E-1,6.394386E-1,-1.1769637E-2,3.387208E-1,3.1677525E-2,-4.6805558E-1,-2.7404115E-1,4.579076E-1,-3.499077E-1,8.0924225E-1,-8.9858305E-3,-3.911095E-1,5.509266E-1,-8.7442017E-1,-9.375759E-2,1.7892413E0,1.9319122E-1,-3.9798647E-1,6.922033E-1,3.9949447E-1,-1.0107106E0,2.6178697E-1,1.0134308E0,3.7717023E-1,-3.5593295E-3,1.5621224E-1,-2.3998901E-1,4.5571676E-1,3.877451E-1,9.048247E-2,-4.7125542E-1,2.0342956E-1,5.274664E-2,-1.8489754E-1,-2.4287151E-1,5.9918004E-1,-4.0375748E-1,1.3325544E-1,1.3932422E-1,2.882457E-1,1.4331666E-1,6.77095E-2,1.1155111E-1,-5.273292E-1,1.8961373E-1,-2.6873553E-1,3.5990667E-1,1.3387191E-1,3.1082147E-1,-3.509843E-2],"categories":[],"categories_nodes":[],"categories_segments":[],"categories_sizes":[],"default_left":[0,0,0,0,0,0,0,0,0,0,0,0,0,0,0,0,0,0,0,0,0,0,0,0,0,0,0,0,0,0,0,0,0,0,0,0,0,0,0,0,0,0,0,0,0,0,0,0,0,0,0,0,0,0,0,0,0],"id":11,"left_children":[1,3,-1,5,7,9,11,13,15,17,19,21,-1,23,25,27,29,31,33,35,37,39,41,43,-1,45,47,49,51,53,55,-1,-1,-1,-1,-1,-1,-1,-1,-1,-1,-1,-1,-1,-1,-1,-1,-1,-1,-1,-1,-1,-1,-1,-1,-1,-1],"loss_changes":[3.3970248E2,4.5776447E1,0E0,1.4918267E1,1.2813377E1,3.549917E1,1.1250557E2,2.866227E1,1.8421944E1,3.1367432E1,7.560607E1,6.187282E1,0E0,3.9067196E1,2.0091934E0,6.940112E0,7.7747574E0,4.497439E1,1.7021535E2,4.5643562E1,4.8457783E1,3.704506E1,1.1723648E1,2.2047804E1,0E0,1.5096016E0,1.7418423E0,9.065595E0,4.5823617E0,6.034992E0,1.0301033E1,0E0,0E0,0E0,0E0,0E0,0E0,0E0,0E0,0E0,0E0,0E0,0E0,0E0,0E0,0E0,0E0,0E0,0E0,0E0,0E0,0E0,0E0,0E0,0E0,0E0,0E0],"parents":[2147483647,0,0,1,1,3,3,4,4,5,5,6,6,7,7,8,8,9,9,10,10,11,11,13,13,14,14,15,15,16,16,17,17,18,18,19,19,20,20,21,21,22,22,23,23,25,25,26,26,27,27,28,28,29,29,30,30],"right_children":[2,4,-1,6,8,10,12,14,16,18,20,22,-1,24,26,28,30,32,34,36,38,40,42,44,-1,46,48,50,52,54,56,-1,-1,-1,-1,-1,-1,-1,-1,-1,-1,-1,-1,-1,-1,-1,-1,-1,-1,-1,-1,-1,-1,-1,-1,-1,-1],"split_conditions":[5.58706E3,4.97234E3,3.0411467E-1,4.91295E3,3E0,4.87102E3,7.6E1,4.99165E3,2E0,4.83572E3,3E0,7.5E1,-4.6805558E-1,4.8E1,1E0,4E0,4E0,4.81552E3,9.7E1,1.5E1,8.3E1,3E0,4.95252E3,1.2E1,-3.9798647E-1,3E0,2E0,1E0,5.9E1,4.99165E3,1.7E1,-3.5593295E-3,1.5621224E-1,-2.3998901E-1,4.5571676E-1,3.877451E-1,9.048247E-2,-4.7125542E-1,2.0342956E-1,5.274664E-2,-1.8489754E-1,-2.4287151E-1,5.9918004E-1,-4.0375748E-1,1.3325544E-1,1.3932422E-1,2.882457E-1,1.4331666E-1,6.77095E-2,1.1155111E-1,-5.273292E-1,1.8961373E-1,-2.6873553E-1,3.5990667E-1,1.3387191E-1,3.1082147E-1,-3.509843E-2],"split_indices":[1,1,0,1,3,1,0,1,4,1,3,0,0,0,4,2,4,1,0,0,0,2,1,0,0,2,3,2,0,1,0,0,0,0,0,0,0,0,0,0,0,0,0,0,0,0,0,0,0,0,0,0,0,0,0,0,0],"split_type":[0,0,0,0,0,0,0,0,0,0,0,0,0,0,0,0,0,0,0,0,0,0,0,0,0,0,0,0,0,0,0,0,0,0,0,0,0,0,0,0,0,0,0,0,0,0,0,0,0,0,0,0,0,0,0,0,0],"sum_hessian":[3.1007355E4,3.0678494E4,3.288617E2,3.0327592E4,3.5090097E2,2.9996904E4,3.3068768E2,2.4392847E2,1.0697249E2,2.9706086E4,2.9081796E2,2.788921E2,5.1795612E1,7.7916084E1,1.6601239E2,1.5514999E1,9.145749E1,2.9490691E4,2.153954E2,2.4798555E2,4.283242E1,2.611974E2,1.7694677E1,5.452799E1,2.3388096E1,3.0964254E1,1.3504813E2,7.144553E0,8.370446E0,6.119326E1,3.0264225E1,2.9332264E4,1.5842764E2,1.7789893E2,3.7496475E1,6.134393E1,1.8664162E2,2.9560375E1,1.3272046E1,1.727457E2,8.8451706E1,1.0971057E0,1.659757E1,7.034082E0,4.7493904E1,1.823212E1,1.2732134E1,9.192352E1,4.312461E1,2.6824644E0,4.462089E0,6.685898E0,1.6845481E0,4.5226376E1,1.59668865E1,1.2500247E1,1.7763979E1],"tree_param":{"num_deleted":"0","num_feature":"5","num_nodes":"57","size_leaf_vector":"1"}},{"base_weights":[3.4052124E-3,-4.662491E-3,3.0248207E-1,-6.9843354E-3,3.6170706E-1,-8.629053E-2,-1.6185852E-3,3.1178984E-1,5.5689466E-1,-1.0075603E0,-5.520722E-2,1.0654602E-1,-1.0184808E-2,-1.9401003E-1,3.2595164E-1,2.6780277E-1,4.5436192E-1,6.736259E-1,-4.611274E-1,-1.8991862E-1,8.0846235E-2,-1.3755213E-2,2.9781997E-1,-1.0025569E-1,6.5231265E-4,2.277707E-1,-5.010062E-1,5.8698153E-1,2.7322942E-1,9.480424E-2,5.6531656E-1,6.326417E-1,-3.7364376E-1,1.2157854E-2,-2.9998165E-1,4.7279802E-1,3.8716525E-3,1.5348461E-1,-1.7702471E-2,-8.060724E-2,1.1459314E-1,-1.4126159E-2,-2.1875367E-1,1.2173293E-2,-6.4464808E-3,6.9691114E-2,2.1039519E-1,-1.0123766E-1,1.0052743E-1,1.0389678E-1,-2.3166703E-1,2.58891E-1,6.52292E-2],"categories":[],"categories_nodes":[],"categories_segments":[],"categories_sizes":[],"default_left":[0,0,0,0,0,0,0,0,0,0,0,0,0,0,0,0,0,0,0,0,0,0,0,0,0,0,0,0,0,0,0,0,0,0,0,0,0,0,0,0,0,0,0,0,0,0,0,0,0,0,0,0,0],"id":12,"left_children":[1,3,-1,5,7,9,11,13,15,17,19,21,23,25,27,-1,29,31,-1,33,35,37,39,41,43,-1,-1,45,47,49,51,-1,-1,-1,-1,-1,-1,-1,-1,-1,-1,-1,-1,-1,-1,-1,-1,-1,-1,-1,-1,-1,-1],"loss_changes":[2.501346E2,2.6040089E1,0E0,1.29434805E1,1.7046585E0,5.5141808E1,2.6399376E1,1.1791716E0,9.022999E-1,5.6990677E1,3.420967E1,4.8115616E1,2.5770054E1,8.120066E0,1.9303627E0,0E0,1.1886764E0,4.600794E1,0E0,1.75089E2,9.434103E1,3.0569042E1,3.859311E1,9.477631E1,2.0832851E1,0E0,0E0,8.370037E-1,4.9586515E0,2.130776E0,2.2555366E0,0E0,0E0,0E0,0E0,0E0,0E0,0E0,0E0,0E0,0E0,0E0,0E0,0E0,0E0,0E0,0E0,0E0,0E0,0E0,0E0,0E0,0E0],"parents":[2147483647,0,0,1,1,3,3,4,4,5,5,6,6,7,7,8,8,9,9,10,10,11,11,12,12,13,13,14,14,16,16,17,17,19,19,20,20,21,21,22,22,23,23,24,24,27,27,28,28,29,29,30,30],"right_children":[2,4,-1,6,8,10,12,14,16,18,20,22,24,26,28,-1,30,32,-1,34,36,38,40,42,44,-1,-1,46,48,50,52,-1,-1,-1,-1,-1,-1,-1,-1,-1,-1,-1,-1,-1,-1,-1,-1,-1,-1,-1,-1,-1,-1],"split_conditions":[5.58706E3,4.99165E3,3.0248207E-1,7E0,4E0,3.6881E2,1.3E1,3E0,1.8E1,1.7527E2,2.74118E3,1.1E1,2.3E1,1E0,2E1,2.6780277E-1,4.3E1,1E0,-4.611274E-1,5E0,2.7848E3,4.4481E2,9.6334E2,2.2E1,5E1,2.277707E-1,-5.010062E-1,1E0,2.7E1,3.8E1,2E0,6.326417E-1,-3.7364376E-1,1.2157854E-2,-2.9998165E-1,4.7279802E-1,3.8716525E-3,1.5348461E-1,-1.7702471E-2,-8.060724E-2,1.1459314E-1,-1.4126159E-2,-2.1875367E-1,1.2173293E-2,-6.4464808E-3,6.9691114E-2,2.1039519E-1,-1.0123766E-1,1.0052743E-1,1.0389678E-1,-2.3166703E-1,2.58891E-1,6.52292E-2],"split_indices":[1,1,0,0,2,1,0,0,0,1,1,0,0,3,0,0,0,3,0,0,1,1,1,0,0,0,0,2,0,0,3,0,0,0,0,0,0,0,0,0,0,0,0,0,0,0,0,0,0,0,0,0,0],"split_type":[0,0,0,0,0,0,0,0,0,0,0,0,0,0,0,0,0,0,0,0,0,0,0,0,0,0,0,0,0,0,0,0,0,0,0,0,0,0,0,0,0,0,0,0,0,0,0,0,0,0,0,0,0],"sum_hessian":[3.0852648E4,3.0607906E4,2.447438E2,3.0416127E4,1.917794E2,1.9265463E3,2.848958E4,1.5479066E2,3.6988735E1,6.1854115E1,1.8646921E3,2.0898513E3,2.6399729E4,3.8700244E0,1.5092065E2,6.8499126E0,3.0138824E1,1.4750676E1,4.710344E1,9.367683E2,9.279238E2,1.2835157E3,8.063357E2,2.83434E3,2.3565389E4,2.6464772E0,1.2235471E0,2.365756E1,1.27263084E2,7.5445447E0,2.2594278E1,8.38283E0,6.3678465E0,7.300301E2,2.0673822E2,3.936808E1,8.885557E2,1.0097129E2,1.1825444E3,1.04007545E2,7.023281E2,2.6143967E3,2.1994345E2,8.406111E3,1.5159277E4,6.5063E0,1.715126E1,1.1296033E1,1.1596706E2,6.313584E0,1.2309608E0,1.1378314E1,1.1215965E1],"tree_param":{"num_deleted":"0","num_feature":"5","num_nodes":"53","size_leaf_vector":"1"}},{"base_weights":[2.5504245E-3,-3.447293E-3,3.0109334E-1,-5.7921587E-3,2.3084943E-1,2.944229E-2,-1.846476E-2,1.1436389E-1,4.7210336E-1,1.2890033E-2,4.698725E-1,-3.7896186E-1,-6.1352453E-3,-2.4317001E-1,3.0722138E-1,-3.4411293E-1,6.218095E-1,1.6260445E-1,-1.8667592E-2,-7.2364295E-1,8.505554E-1,-6.337569E-1,2.8118795E-2,3.9371288E-1,-1.4211175E-2,1.148272E-1,-3.58836E-1,5.8089495E-1,2.4344051E-1,-5.446918E-1,2.1294798E-1,-8.186345E-1,6.8214136E-1,-1.1848555E-2,1.0316394E-1,-5.7628307E-2,5.2020624E-3,-4.780968E-1,-4.9061727E-2,-4.518309E-1,3.0900702E-1,-4.7792608E-1,-1.5295023E-1,-4.9529257E-1,5.804587E-2,7.252002E-2,2.647761E-1,-3.9643575E-2,-4.6279727E-4,-1.0358089E-1,2.1204115E-1,-1.3975955E-2,2.18695E-1,2.1345057E-2,9.515726E-2,-3.5921305E-1,3.3620685E-2,-3.512379E-1,1.4968646E-2,2.542783E-1,9.4131626E-2],"categories":[],"categories_nodes":[],"categories_segments":[],"categories_sizes":[],"default_left":[0,0,0,0,0,0,0,0,0,0,0,0,0,0,0,0,0,0,0,0,0,0,0,0,0,0,0,0,0,0,0,0,0,0,0,0,0,0,0,0,0,0,0,0,0,0,0,0,0,0,0,0,0,0,0,0,0,0,0,0,0],"id":13,"left_children":[1,3,-1,5,7,9,11,13,15,17,19,21,23,25,27,29,31,33,35,37,39,41,43,45,47,49,-1,51,53,55,-1,57,59,-1,-1,-1,-1,-1,-1,-1,-1,-1,-1,-1,-1,-1,-1,-1,-1,-1,-1,-1,-1,-1,-1,-1,-1,-1,-1,-1,-1],"loss_changes":[1.845224E2,1.6784903E1,0E0,1.3506409E1,8.453638E0,5.8326473E1,9.887963E1,1.4243131E1,1.2220055E1,3.6443157E1,1.3228442E2,7.63258E1,6.947158E1,2.4890825E1,2.1961956E0,3.7419734E0,7.804825E0,4.9208805E1,3.9788258E1,3.4152626E1,9.467314E1,5.2985382E1,7.922433E1,3.1432404E1,3.1505219E1,1.4858197E1,0E0,2.3189716E0,1.379343E0,6.0926313E0,0E0,1.2226961E0,4.6450157E0,0E0,0E0,0E0,0E0,0E0,0E0,0E0,0E0,0E0,0E0,0E0,0E0,0E0,0E0,0E0,0E0,0E0,0E0,0E0,0E0,0E0,0E0,0E0,0E0,0E0,0E0,0E0,0E0],"parents":[2147483647,0,0,1,1,3,3,4,4,5,5,6,6,7,7,8,8,9,9,10,10,11,11,12,12,13,13,14,14,15,15,16,16,17,17,18,18,19,19,20,20,21,21,22,22,23,23,24,24,25,25,27,27,28,28,29,29,31,31,32,32],"right_children":[2,4,-1,6,8,10,12,14,16,18,20,22,24,26,28,30,32,34,36,38,40,42,44,46,48,50,-1,52,54,56,-1,58,60,-1,-1,-1,-1,-1,-1,-1,-1,-1,-1,-1,-1,-1,-1,-1,-1,-1,-1,-1,-1,-1,-1,-1,-1,-1,-1,-1,-1],"split_conditions":[5.58706E3,4.97234E3,3.0109334E-1,1.43257E3,3E0,1.39486E3,1.57251E3,4.99165E3,2E0,1E0,3.7E1,4E0,1.63001E3,4.8E1,1E0,9.7E1,1.1E1,2E0,2E0,1.4135E3,1E0,1.45207E3,1.3E1,5E0,1.98094E3,4E0,-3.58836E-1,1E0,3E0,4E0,2.1294798E-1,4.99165E3,4E0,-1.1848555E-2,1.0316394E-1,-5.7628307E-2,5.2020624E-3,-4.780968E-1,-4.9061727E-2,-4.518309E-1,3.0900702E-1,-4.7792608E-1,-1.5295023E-1,-4.9529257E-1,5.804587E-2,7.252002E-2,2.647761E-1,-3.9643575E-2,-4.6279727E-4,-1.0358089E-1,2.1204115E-1,-1.3975955E-2,2.18695E-1,2.1345057E-2,9.515726E-2,-3.5921305E-1,3.3620685E-2,-3.512379E-1,1.4968646E-2,2.542783E-1,9.4131626E-2],"split_indices":[1,1,0,1,3,1,1,1,4,4,0,4,1,0,4,0,0,3,4,1,4,1,0,4,1,4,0,3,4,2,0,1,4,0,0,0,0,0,0,0,0,0,0,0,0,0,0,0,0,0,0,0,0,0,0,0,0,0,0,0,0],"split_type":[0,0,0,0,0,0,0,0,0,0,0,0,0,0,0,0,0,0,0,0,0,0,0,0,0,0,0,0,0,0,0,0,0,0,0,0,0,0,0,0,0,0,0,0,0,0,0,0,0,0,0,0,0,0,0,0,0,0,0,0,0],"sum_hessian":[3.0730236E4,3.0548213E4,1.8202277E2,3.0246479E4,3.0173456E2,8.0005933E3,2.2245887E4,2.0447916E2,9.725541E1,7.711798E3,2.8879565E2,7.3469635E2,2.151119E4,7.155821E1,1.3292094E2,1.4872131E1,8.238328E1,1.3418229E3,6.3699746E3,6.962059E1,2.1917506E2,4.515259E2,2.8317044E2,4.2492526E2,2.1086264E4,5.2656216E1,1.8901999E1,2.3590445E1,1.0933049E2,1.2900229E1,1.9719021E0,2.8065724E0,7.9576706E1,6.348385E2,7.0698444E2,1.0944358E3,5.275539E3,2.6544132E1,4.3076458E1,1.49867325E1,2.0418834E2,5.029776E1,4.0122815E2,2.4582548E1,2.5858792E2,3.2529358E2,9.9631676E1,2.0444637E3,1.90418E4,2.9862892E1,2.2793325E1,4.6352654E0,1.895518E1,3.3360588E1,7.59699E1,6.057332E0,6.842897E0,1.749283E0,1.0572894E0,5.4014973E1,2.5561733E1],"tree_param":{"num_deleted":"0","num_feature":"5","num_nodes":"61","size_leaf_vector":"1"}},{"base_weights":[1.7462682E-3,-2.714282E-3,2.9981786E-1,-2.818685E-1,-2.328021E-3,4.117324E-3,-5.376387E-2,-2.0343985E-3,1.6862947E-1,-7.564234E-1,-3.314659E-2,5.9520192E-3,-1.2108788E-1,1.21302865E-1,7.4359137E-1,-3.2951805E-1,-4.0336013E-1,3.660304E-1,-6.116002E-2,2.9014923E-2,6.0484956E-5,5.9466783E-2,-6.663599E-2,1.5609378E-1,6.522509E-3,3.4147727E-1,-3.4612024E-1,-3.630496E-1,6.9563106E-2,-1.3843945E-1,1.9736455E-1,-3.3033958E-1,-1.0523896E-2],"categories":[],"categories_nodes":[],"categories_segments":[],"categories_sizes":[],"default_left":[0,0,0,0,0,0,0,0,0,0,0,0,0,0,0,0,0,0,0,0,0,0,0,0,0,0,0,0,0,0,0,0,0],"id":14,"left_children":[1,3,-1,-1,5,7,9,11,13,15,17,19,21,23,25,27,-1,29,31,-1,-1,-1,-1,-1,-1,-1,-1,-1,-1,-1,-1,-1,-1],"loss_changes":[1.3630241E2,1.10324E1,0E0,0E0,1.0105628E1,2.7414806E1,4.9148964E1,2.4829306E1,2.6479704E1,2.38382E1,3.6909058E1,1.2772908E1,5.300483E1,3.587601E1,5.677444E1,2.8639158E1,0E0,5.2578945E1,8.358668E1,0E0,0E0,0E0,0E0,0E0,0E0,0E0,0E0,0E0,0E0,0E0,0E0,0E0,0E0],"parents":[2147483647,0,0,1,1,4,4,5,5,6,6,7,7,8,8,9,9,10,10,11,11,12,12,13,13,14,14,15,15,17,17,18,18],"right_children":[2,4,-1,-1,6,8,10,12,14,16,18,20,22,24,26,28,-1,30,32,-1,-1,-1,-1,-1,-1,-1,-1,-1,-1,-1,-1,-1,-1],"split_conditions":[5.58706E3,1.3946E2,2.9981786E-1,-2.818685E-1,8.9E1,8.6E1,3.6881E2,8E1,4.67545E3,3E0,6.1823E2,4.4481E2,1.12041E3,1E0,4E0,3E0,-4.0336013E-1,2E0,7.7237E2,2.9014923E-2,6.0484956E-5,5.9466783E-2,-6.663599E-2,1.5609378E-1,6.522509E-3,3.4147727E-1,-3.4612024E-1,-3.630496E-1,6.9563106E-2,-1.3843945E-1,1.9736455E-1,-3.3033958E-1,-1.0523896E-2],"split_indices":[1,1,0,0,0,0,1,0,1,4,1,1,1,4,4,2,0,2,1,0,0,0,0,0,0,0,0,0,0,0,0,0,0],"split_type":[0,0,0,0,0,0,0,0,0,0,0,0,0,0,0,0,0,0,0,0,0,0,0,0,0,0,0,0,0,0,0,0,0],"sum_hessian":[3.0627781E4,3.0492443E4,1.3533664E2,1.1564743E1,3.0480879E4,2.7087506E4,3.3933726E3,2.6112066E4,9.754399E2,9.571205E1,3.2976606E3,2.447141E4,1.640656E3,9.023741E2,7.306577E1,5.6360573E1,3.9351475E1,2.1545607E2,3.0822046E3,1.4570773E3,2.3014334E4,3.941111E2,1.2465449E3,1.7935399E2,7.2302014E2,6.0815506E1,1.2250272E1,2.1491587E1,3.4868988E1,5.6025127E1,1.5943094E2,7.439596E1,3.0078086E3],"tree_param":{"num_deleted":"0","num_feature":"5","num_nodes":"33","size_leaf_vector":"1"}},{"base_weights":[1.1703174E-3,-2.1452738E-3,2.9853967E-1,-1.5875818E-1,8.834433E-5,1.7785431E-1,-6.666263E-1,1.0526749E-1,-4.931958E-3,-9.646166E-2,8.869436E-1,-1.0976549E0,-7.147889E-2,2.2548476E-2,6.7217344E-1,-3.5397732E-1,-2.2832418E-3,1.2098118E0,-5.137023E-1,-4.1237986E-1,1.2167616E0,2.737646E-1,-1.3950797E0,1.3303058E0,-7.4062735E-1,3.1692782E-1,-1.3214096E-1,8.896057E-2,9.259136E-1,-1.2103871E0,5.498338E-2,1.7522329E-1,-4.9219346E-3,-7.7732875E-5,6.139669E-1,1.3285115E-1,-2.9282147E-1,-3.2986745E-1,4.0123323E-1,-3.5618117E-1,4.9661782E-1,-7.863791E-2,-4.7128984E-1,6.9998497E-1,-3.4277952E-1,2.1333574E-1,-4.064324E-1,3.0723834E-1,8.857182E-3,1.1052572E-1,-8.33571E-2,4.1768086E-1,-5.007193E-1,-4.627536E-1,3.916006E-1,1.4701994E-2,-4.911866E-1,-1.9115913E-1,1.747591E-1,-7.796893E-2,1.7506376E-1,-8.0696136E-2,3.1710867E-4],"categories":[],"categories_nodes":[],"categories_segments":[],"categories_sizes":[],"default_left":[0,0,0,0,0,0,0,0,0,0,0,0,0,0,0,0,0,0,0,0,0,0,0,0,0,0,0,0,0,0,0,0,0,0,0,0,0,0,0,0,0,0,0,0,0,0,0,0,0,0,0,0,0,0,0,0,0,0,0,0,0,0,0],"id":15,"left_children":[1,3,-1,5,7,9,11,13,15,17,19,21,23,25,27,29,31,33,35,-1,37,39,41,43,45,47,49,51,53,55,57,59,61,-1,-1,-1,-1,-1,-1,-1,-1,-1,-1,-1,-1,-1,-1,-1,-1,-1,-1,-1,-1,-1,-1,-1,-1,-1,-1,-1,-1,-1,-1],"loss_changes":[1.0073812E2,1.0657587E1,0E0,7.335626E1,1.5862069E1,5.0354004E1,4.3780685E1,6.416002E1,2.650665E1,1.02675354E2,5.5515884E1,4.0799904E1,6.9351006E1,5.4472485E1,2.5700012E1,7.569258E1,1.332951E1,4.619931E1,6.3508034E1,0E0,1.92294E1,3.930127E1,1.5847427E1,6.196334E1,4.5522015E1,8.371652E1,5.7306072E1,1.25881424E2,1.1561777E2,3.762345E1,5.4084976E1,7.421267E1,4.4272026E1,0E0,0E0,0E0,0E0,0E0,0E0,0E0,0E0,0E0,0E0,0E0,0E0,0E0,0E0,0E0,0E0,0E0,0E0,0E0,0E0,0E0,0E0,0E0,0E0,0E0,0E0,0E0,0E0,0E0,0E0],"parents":[2147483647,0,0,1,1,3,3,4,4,5,5,6,6,7,7,8,8,9,9,10,10,11,11,12,12,13,13,14,14,15,15,16,16,17,17,18,18,20,20,21,21,22,22,23,23,24,24,25,25,26,26,27,27,28,28,29,29,30,30,31,31,32,32],"right_children":[2,4,-1,6,8,10,12,14,16,18,20,22,24,26,28,30,32,34,36,-1,38,40,42,44,46,48,50,52,54,56,58,60,62,-1,-1,-1,-1,-1,-1,-1,-1,-1,-1,-1,-1,-1,-1,-1,-1,-1,-1,-1,-1,-1,-1,-1,-1,-1,-1,-1,-1,-1,-1],"split_conditions":[5.58706E3,2.3446E2,2.9853967E-1,2E0,4.4481E2,5E0,5.7E1,4.254E2,4.8273E2,1.5E1,3E1,8E0,1E0,3E1,4.1E1,4.2E1,5.4078E2,1.2E1,1E0,-4.1237986E-1,1E0,7E0,1.569E2,6.4E1,1E0,2.7239E2,1E0,2E0,2E0,1E0,2E0,3E0,6.5575E2,-7.7732875E-5,6.139669E-1,1.3285115E-1,-2.9282147E-1,-3.2986745E-1,4.0123323E-1,-3.5618117E-1,4.9661782E-1,-7.863791E-2,-4.7128984E-1,6.9998497E-1,-3.4277952E-1,2.1333574E-1,-4.064324E-1,3.0723834E-1,8.857182E-3,1.1052572E-1,-8.33571E-2,4.1768086E-1,-5.007193E-1,-4.627536E-1,3.916006E-1,1.4701994E-2,-4.911866E-1,-1.9115913E-1,1.747591E-1,-7.796893E-2,1.7506376E-1,-8.0696136E-2,3.1710867E-4],"split_indices":[1,1,0,3,1,4,0,1,1,0,0,0,2,0,0,0,1,0,4,0,2,0,1,0,4,1,4,2,2,4,3,2,1,0,0,0,0,0,0,0,0,0,0,0,0,0,0,0,0,0,0,0,0,0,0,0,0,0,0,0,0,0,0],"split_type":[0,0,0,0,0,0,0,0,0,0,0,0,0,0,0,0,0,0,0,0,0,0,0,0,0,0,0,0,0,0,0,0,0,0,0,0,0,0,0,0,0,0,0,0,0,0,0,0,0,0,0,0,0,0,0,0,0,0,0,0,0,0,0],"sum_hessian":[3.0566074E4,3.0465447E4,1.0062675E2,4.2740408E2,3.0038043E4,2.5743033E2,1.6997377E2,1.3675187E3,2.8670523E4,1.8624438E2,7.1185936E1,9.808934E1,7.188442E1,1.1942952E3,1.7322356E2,2.1492757E2,2.8455596E4,4.4627514E1,1.4161687E2,8.657083E0,6.2528854E1,1.7495857E1,8.059348E1,2.2907642E1,4.8976784E1,4.1103415E2,7.83261E2,5.2925877E1,1.2029768E2,6.883004E1,1.4609752E2,4.1584778E2,2.8039748E4,1.8652542E1,2.5974972E1,4.6161404E1,9.545547E1,2.6948109E0,5.9834045E1,8.571936E0,8.923922E0,1.1165082E1,6.94284E1,1.6337732E1,6.5699096E0,1.451284E1,3.4463943E1,1.1803303E2,2.9300113E2,1.7625748E2,6.0700354E2,3.0513094E1,2.2412785E1,1.5618978E1,1.046787E2,1.7649069E1,5.1180973E1,6.309906E1,8.299847E1,2.0149388E2,2.1435388E2,6.198454E2,2.7419902E4],"tree_param":{"num_deleted":"0","num_feature":"5","num_nodes":"63","size_leaf_vector":"1"}},{"base_weights":[4.620094E-4,-2.006996E-3,2.971477E-1,-1.21603824E-1,1.3477439E-3,-4.0224183E-1,-8.5212834E-2,5.193987E-1,-1.4066355E-3,-1.8992822E-1,2.8375703E-1,1.5664235E0,-1.2164902E-1,-3.1722123E-3,1.8143134E-1,3.3344644E-1,-3.0616012E-1,-4.607682E-1,4.7241038E-1,-3.3002326E-1,1.6959037E0,-5.053896E-1,3.0536962E-1,-1.3499694E-3,-1.6689625E-1,-3.6984062E-1,2.2417746E-1,1.8919422E-1,-4.8075292E-1,-1.4579752E-1,4.743513E-2,4.0032852E-1,-8.034081E-3,4.4683444E-1,6.1444855E-1,1.7901866E-1,-4.063624E-1,-1.1224569E-3,7.029176E-2,6.515391E-3,-4.0505874E-1,-3.7250757E-1,7.634581E-2,2.6392618E-1,3.2840237E-2],"categories":[],"categories_nodes":[],"categories_segments":[],"categories_sizes":[],"default_left":[0,0,0,0,0,0,0,0,0,0,0,0,0,0,0,0,0,0,0,0,0,0,0,0,0,0,0,0,0,0,0,0,0,0,0,0,0,0,0,0,0,0,0,0,0],"id":16,"left_children":[1,3,-1,5,7,-1,9,11,13,15,17,19,21,23,25,27,29,-1,31,-1,33,-1,35,37,39,41,43,-1,-1,-1,-1,-1,-1,-1,-1,-1,-1,-1,-1,-1,-1,-1,-1,-1,-1],"loss_changes":[7.4529E1,1.2202817E1,0E0,3.670507E1,4.221625E1,0E0,3.1229115E1,1.05212234E2,9.500948E0,3.8372314E1,6.209564E1,2.2405731E1,6.590745E1,8.696332E0,6.716113E0,6.706409E1,4.310034E1,0E0,7.0066826E1,0E0,1.1042023E0,0E0,3.8435E1,1.6248693E1,7.16393E1,1.1547262E1,1.9595493E1,0E0,0E0,0E0,0E0,0E0,0E0,0E0,0E0,0E0,0E0,0E0,0E0,0E0,0E0,0E0,0E0,0E0,0E0],"parents":[2147483647,0,0,1,1,3,3,4,4,6,6,7,7,8,8,9,9,10,10,11,11,12,12,13,13,14,14,15,15,16,16,18,18,20,20,22,22,23,23,24,24,25,25,26,26],"right_children":[2,4,-1,6,8,-1,10,12,14,16,18,20,22,24,26,28,30,-1,32,-1,34,-1,36,38,40,42,44,-1,-1,-1,-1,-1,-1,-1,-1,-1,-1,-1,-1,-1,-1,-1,-1,-1,-1],"split_conditions":[5.58706E3,3.1029E2,2.971477E-1,5E0,3.2993E2,-4.0224183E-1,5E0,1E0,4.97234E3,1.5E1,1.8E1,1E0,3.2E1,4.91295E3,1.2E1,2.7239E2,3E0,-4.607682E-1,3.1E1,-3.3002326E-1,6.6E1,-5.053896E-1,7.8E1,4.87102E3,7.6E1,4.99165E3,1.7E1,1.8919422E-1,-4.8075292E-1,-1.4579752E-1,4.743513E-2,4.0032852E-1,-8.034081E-3,4.4683444E-1,6.1444855E-1,1.7901866E-1,-4.063624E-1,-1.1224569E-3,7.029176E-2,6.515391E-3,-4.0505874E-1,-3.7250757E-1,7.634581E-2,2.6392618E-1,3.2840237E-2],"split_indices":[1,1,0,0,1,0,4,2,1,0,0,4,0,1,0,1,3,0,0,0,0,0,0,1,0,1,0,0,0,0,0,0,0,0,0,0,0,0,0,0,0,0,0,0,0],"split_type":[0,0,0,0,0,0,0,0,0,0,0,0,0,0,0,0,0,0,0,0,0,0,0,0,0,0,0,0,0,0,0,0,0,0,0,0,0,0,0,0,0,0,0,0,0],"sum_hessian":[3.0488002E4,3.0413154E4,7.4848434E1,8.2886273E2,2.9584291E4,2.2984133E1,8.058786E2,1.5547021E2,2.942882E4,6.2810474E2,1.7777383E2,5.8491833E1,9.697839E1,2.9148332E4,2.804885E2,1.1380215E2,5.143026E2,1.602864E1,1.617452E2,2.3615797E0,5.6130253E1,2.0177858E1,7.680053E1,2.882848E4,3.198517E2,1.963358E1,2.6085492E2,9.924124E1,1.4560908E1,3.7067847E2,1.4362411E2,5.8702576E1,1.0304262E2,3.8685368E1,1.7444883E1,6.5877716E1,1.0922815E1,2.8539828E4,2.8865234E2,2.7672437E2,4.312735E1,7.7800922E0,1.1853487E1,3.785297E1,2.2300195E2],"tree_param":{"num_deleted":"0","num_feature":"5","num_nodes":"45","size_leaf_vector":"1"}},{"base_weights":[1.8603836E-4,-1.6536772E-3,2.9552597E-1,-2.7003383E-2,1.0168424E-2,-3.297399E-2,4.573755E-1,1.4673482E-2,-1.661661E-1,-1.4455892E-1,-7.3996517E-3,-4.020356E-1,9.387411E-1,8.208233E-3,5.63011E-1,4.7711235E-1,-3.351019E-1,-6.503219E-1,-9.600585E-2,6.454772E-2,-5.315161E-2,-4.4251254E-1,3.9874035E-1,1.2277344E0,-4.0837574E-1,-2.8966972E-1,1.1983269E-2,8.099564E-1,-7.455044E-1,1.2839854E0,-3.0730197E-1,-1.1862634E0,-3.9305214E-2,5.8570664E-2,-3.7721556E-1,4.6064824E-2,-5.490096E-2,-1.4873148E-2,8.242678E-2,-3.0952862E-1,-1.2413053E-2,-3.953575E-2,5.30171E-1,-2.221543E-1,4.3274462E-2,6.4631165E-3,-2.7590604E-2,5.0128534E-2,3.1367558E-1,1.5943225E-1,-4.6422198E-1,4.6379083E-1,-3.868893E-1,-4.1494447E-1,2.3431136E-1,-4.4001308E-1,-6.0060505E-2,-1.5642355E-1,1.3889305E-1],"categories":[],"categories_nodes":[],"categories_segments":[],"categories_sizes":[],"default_left":[0,0,0,0,0,0,0,0,0,0,0,0,0,0,0,0,0,0,0,0,0,0,0,0,0,0,0,0,0,0,0,0,0,0,0,0,0,0,0,0,0,0,0,0,0,0,0,0,0,0,0,0,0,0,0,0,0,0,0],"id":17,"left_children":[1,3,-1,5,7,9,11,13,15,17,19,21,23,25,27,29,31,33,35,37,39,-1,-1,41,-1,43,45,47,49,51,53,55,57,-1,-1,-1,-1,-1,-1,-1,-1,-1,-1,-1,-1,-1,-1,-1,-1,-1,-1,-1,-1,-1,-1,-1,-1,-1,-1],"loss_changes":[5.5116516E1,9.099351E0,0E0,2.7942238E1,1.6451529E1,2.7223118E1,4.9047256E1,7.157692E1,5.6225937E1,4.3616776E1,2.555449E1,8.1720436E1,5.199427E1,2.244532E1,7.6630646E1,6.857312E1,1.0297703E2,8.01303E1,3.5288483E1,7.240969E1,5.4638466E1,0E0,0E0,4.9950417E1,0E0,4.8973877E1,1.9588722E1,2.9879349E1,3.9604782E1,3.792637E1,6.597915E1,2.888002E1,7.4025604E1,0E0,0E0,0E0,0E0,0E0,0E0,0E0,0E0,0E0,0E0,0E0,0E0,0E0,0E0,0E0,0E0,0E0,0E0,0E0,0E0,0E0,0E0,0E0,0E0,0E0,0E0],"parents":[2147483647,0,0,1,1,3,3,4,4,5,5,6,6,7,7,8,8,9,9,10,10,11,11,12,12,13,13,14,14,15,15,16,16,17,17,18,18,19,19,20,20,23,23,25,25,26,26,27,27,28,28,29,29,30,30,31,31,32,32],"right_children":[2,4,-1,6,8,10,12,14,16,18,20,22,24,26,28,30,32,34,36,38,40,-1,-1,42,-1,44,46,48,50,52,54,56,58,-1,-1,-1,-1,-1,-1,-1,-1,-1,-1,-1,-1,-1,-1,-1,-1,-1,-1,-1,-1,-1,-1,-1,-1,-1,-1],"split_conditions":[5.58706E3,2E0,2.9552597E-1,1E2,9.8E1,1E0,2E0,9.7E1,9.8241E2,1E1,3.8E1,4.7953E3,3.57937E3,2.3446E2,3E0,3E0,9.9E1,3E0,1.35422E3,2.6E1,3.9E1,-4.4251254E-1,3.9874035E-1,2.18852E3,-4.0837574E-1,5.5E1,4.57574E3,2E0,1.45207E3,1E2,7.8978E2,4E0,3.50292E3,5.8570664E-2,-3.7721556E-1,4.6064824E-2,-5.490096E-2,-1.4873148E-2,8.242678E-2,-3.0952862E-1,-1.2413053E-2,-3.953575E-2,5.30171E-1,-2.221543E-1,4.3274462E-2,6.4631165E-3,-2.7590604E-2,5.0128534E-2,3.1367558E-1,1.5943225E-1,-4.6422198E-1,4.6379083E-1,-3.868893E-1,-4.1494447E-1,2.3431136E-1,-4.4001308E-1,-6.0060505E-2,-1.5642355E-1,1.3889305E-1],"split_indices":[1,4,0,0,0,2,3,0,1,0,0,1,1,1,3,4,0,0,1,0,0,0,0,1,0,0,1,2,1,0,1,2,1,0,0,0,0,0,0,0,0,0,0,0,0,0,0,0,0,0,0,0,0,0,0,0,0,0,0],"split_type":[0,0,0,0,0,0,0,0,0,0,0,0,0,0,0,0,0,0,0,0,0,0,0,0,0,0,0,0,0,0,0,0,0,0,0,0,0,0,0,0,0,0,0,0,0,0,0,0,0,0,0,0,0,0,0,0,0,0,0],"sum_hessian":[3.0416664E4,3.0360951E4,5.5713516E1,9.655572E3,2.0705379E4,9.538924E3,1.1664787E2,2.0190463E4,5.1491644E2,1.7777339E3,7.7611904E3,4.193808E1,7.470979E1,1.9956182E4,2.3428114E2,1.0672016E2,4.0819626E2,1.5462779E2,1.6231062E3,3.016762E3,4.744428E3,2.5981989E1,1.5956091E1,6.678454E1,7.925254E0,2.4879384E2,1.9707389E4,1.9740712E2,3.6874016E1,5.229304E1,5.4427124E1,1.0449607E2,3.037002E2,6.490385E1,8.9723946E1,4.1936792E2,1.2037383E3,1.9557325E3,1.0610294E3,5.5377014E1,4.6890513E3,1.9187826E1,4.7596714E1,1.2167051E2,1.2712333E2,1.8048281E4,1.6591062E3,5.340704E1,1.4400009E2,1.4354019E1,2.2519995E1,4.7824043E1,4.4689994E0,2.7234442E1,2.7192682E1,8.0977684E1,2.3518387E1,1.5494289E2,1.4875731E2],"tree_param":{"num_deleted":"0","num_feature":"5","num_nodes":"59","size_leaf_vector":"1"}},{"base_weights":[-2.9562708E-4,-1.668272E-3,2.9354763E-1,-1.9460527E-2,1.5086785E-2,-4.069781E-3,-5.556469E-1,3.7509516E-1,5.262122E-3,-1.1168489E-2,2.4713206E-1,-1.1137079E0,-1.3151775E-1,-8.831743E-1,5.279264E-1,-2.1067359E-1,1.3229027E-2,-3.3075097E-3,-2.6295742E-1,3.8480592E-1,-8.792012E-1,-6.290037E-1,-5.0091547E-1,1.2551875E0,-6.7098665E-1,5.873906E-1,-4.6688753E-1,1.2523194E-1,9.1653305E-1,-4.9328245E-2,-9.3012613E-1,1.21340394E-1,-5.193126E-3,-2.7713291E-3,1.5802704E-1,2.62884E-2,-3.856949E-1,-4.484915E-1,1.40509E-1,7.4324846E-2,-4.7922638E-1,-4.7514138E-1,6.0582325E-2,4.4529215E-1,-4.1405094E-1,-2.3951028E-1,3.4752166E-1,3.8932404E-1,-3.750249E-1,-8.7979354E-2,2.720186E-1,1.9151926E-1,5.0744045E-1,3.5852216E-2,-3.325727E-1,-4.6914724E-1,1.820659E-1,-4.0104624E-2,5.8740903E-2,-5.5215854E-2,5.9934948E-3],"categories":[],"categories_nodes":[],"categories_segments":[],"categories_sizes":[],"default_left":[0,0,0,0,0,0,0,0,0,0,0,0,0,0,0,0,0,0,0,0,0,0,0,0,0,0,0,0,0,0,0,0,0,0,0,0,0,0,0,0,0,0,0,0,0,0,0,0,0,0,0,0,0,0,0,0,0,0,0,0,0],"id":18,"left_children":[1,3,-1,5,7,9,11,13,15,17,19,21,23,25,27,29,31,33,35,37,39,41,-1,43,45,47,-1,49,51,53,55,57,59,-1,-1,-1,-1,-1,-1,-1,-1,-1,-1,-1,-1,-1,-1,-1,-1,-1,-1,-1,-1,-1,-1,-1,-1,-1,-1,-1,-1],"loss_changes":[4.0790916E1,9.038494E0,0E0,1.2134362E2,5.5227093E1,2.5494051E1,9.6966E1,8.02327E1,2.6153736E1,2.7517988E1,6.1265335E1,4.666188E1,1.7608461E2,4.575412E1,5.7864174E1,6.274692E1,2.920032E1,4.238867E1,1.5102725E2,5.580154E1,3.528041E1,7.663493E1,0E0,4.187407E1,4.0376305E1,2.113588E1,0E0,6.0152245E1,3.9524765E1,7.934162E1,9.740869E1,4.0560814E1,5.640459E1,0E0,0E0,0E0,0E0,0E0,0E0,0E0,0E0,0E0,0E0,0E0,0E0,0E0,0E0,0E0,0E0,0E0,0E0,0E0,0E0,0E0,0E0,0E0,0E0,0E0,0E0,0E0,0E0],"parents":[2147483647,0,0,1,1,3,3,4,4,5,5,6,6,7,7,8,8,9,9,10,10,11,11,12,12,13,13,14,14,15,15,16,16,17,17,18,18,19,19,20,20,21,21,23,23,24,24,25,25,27,27,28,28,29,29,30,30,31,31,32,32],"right_children":[2,4,-1,6,8,10,12,14,16,18,20,22,24,26,28,30,32,34,36,38,40,42,-1,44,46,48,-1,50,52,54,56,58,60,-1,-1,-1,-1,-1,-1,-1,-1,-1,-1,-1,-1,-1,-1,-1,-1,-1,-1,-1,-1,-1,-1,-1,-1,-1,-1,-1,-1],"split_conditions":[5.58706E3,2.57124E3,2.9354763E-1,2.4935E3,2.62754E3,2.43734E3,5.1E1,1E0,2.7212E3,2.36421E3,5E0,3E0,5.6E1,1E0,3E0,7.7E1,1.4E1,2.34503E3,6.5E1,7E0,1E0,2E0,-5.0091547E-1,3E0,1E2,2.58914E3,-4.6688753E-1,3E0,8.8E1,2.70528E3,2.70528E3,4E0,2.6E1,-2.7713291E-3,1.5802704E-1,2.62884E-2,-3.856949E-1,-4.484915E-1,1.40509E-1,7.4324846E-2,-4.7922638E-1,-4.7514138E-1,6.0582325E-2,4.4529215E-1,-4.1405094E-1,-2.3951028E-1,3.4752166E-1,3.8932404E-1,-3.750249E-1,-8.7979354E-2,2.720186E-1,1.9151926E-1,5.0744045E-1,3.5852216E-2,-3.325727E-1,-4.6914724E-1,1.820659E-1,-4.0104624E-2,5.8740903E-2,-5.5215854E-2,5.9934948E-3],"split_indices":[1,1,0,1,1,1,0,4,1,1,4,4,0,3,2,0,0,1,0,0,3,4,0,3,0,1,0,3,0,1,1,0,0,0,0,0,0,0,0,0,0,0,0,0,0,0,0,0,0,0,0,0,0,0,0,0,0,0,0,0,0],"split_type":[0,0,0,0,0,0,0,0,0,0,0,0,0,0,0,0,0,0,0,0,0,0,0,0,0,0,0,0,0,0,0,0,0,0,0,0,0,0,0,0,0,0,0,0,0,0,0,0,0,0,0,0,0,0,0,0,0,0,0,0,0],"sum_hessian":[3.0358832E4,3.0317314E4,4.151849E1,1.4703478E4,1.5613836E4,1.4294184E4,4.0929404E2,4.1379596E2,1.520004E4,1.3902275E4,3.919086E2,1.7603918E2,2.3325485E2,4.429917E1,3.694968E2,5.399427E2,1.4660098E4,1.3482362E4,4.1991312E2,3.498091E2,4.2099476E1,9.518903E1,8.085015E1,6.495676E1,1.682981E2,1.3949955E1,3.0349218E1,1.8210863E2,1.8738815E2,4.4190833E2,9.803436E1,2.1335662E3,1.2526531E4,1.3334164E4,1.4819742E2,3.1339398E2,1.0651914E2,1.4168608E1,3.356405E2,1.6641907E1,2.545757E1,4.3871853E1,5.1317177E1,6.0162926E1,4.7938285E0,1.5786923E2,1.0428874E1,1.0272429E1,3.677526E0,1.1900529E2,6.3103348E1,1.3923756E2,4.8150597E1,3.819204E2,5.998791E1,6.9402725E1,2.8631636E1,4.8199957E2,1.6515667E3,1.5446267E3,1.0981904E4],"tree_param":{"num_deleted":"0","num_feature":"5","num_nodes":"61","size_leaf_vector":"1"}},{"base_weights":[-7.9776795E-4,-1.823946E-3,2.9106742E-1,3.6688861E-3,-4.645616E-2,-7.243177E-4,1.2038177E-1,-5.687837E-1,-3.3825807E-2,4.366238E-3,-7.756544E-2,8.268351E-1,9.321324E-2,-8.578961E-1,5.919499E-1,8.856539E-1,-4.088355E-2,7.5410854E-4,1.374204E-1,-3.4462568E-1,3.2674473E-2,-3.4218213E-1,2.1096973E0,-1.0109727E0,1.5768568E-1,7.5270616E-2,-3.707436E-1,1.6311013E0,-3.1789625E-1,-4.1764095E-1,1.5422199E0,-4.633654E-1,-3.41126E-2,1.1618086E-3,-8.00841E-2,-2.7688837E-1,6.747444E-2,-1.5738392E-1,1.5213573E-1,5.2488197E-2,-5.0105523E-2,-3.7893754E-1,2.733341E-1,8.661659E-1,3.9955887E-1,-2.0977238E-2,-4.7883892E-1,3.750942E-1,3.5603877E-2,-3.6921206E-1,3.0776593E-1,-1.8359596E-1,5.8539414E-1,5.44257E-1,-3.0416957E-1,-3.5433285E-2,1.40630305E-2],"categories":[],"categories_nodes":[],"categories_segments":[],"categories_sizes":[],"default_left":[0,0,0,0,0,0,0,0,0,0,0,0,0,0,0,0,0,0,0,0,0,0,0,0,0,0,0,0,0,0,0,0,0,0,0,0,0,0,0,0,0,0,0,0,0,0,0,0,0,0,0,0,0,0,0,0,0],"id":19,"left_children":[1,3,-1,5,7,9,11,13,15,17,19,21,23,25,27,29,31,33,35,37,39,41,43,45,47,49,-1,51,-1,-1,53,-1,55,-1,-1,-1,-1,-1,-1,-1,-1,-1,-1,-1,-1,-1,-1,-1,-1,-1,-1,-1,-1,-1,-1,-1,-1],"loss_changes":[3.0191751E1,7.4202957E0,0E0,1.3819042E1,2.1862202E1,1.0160565E1,1.8687677E1,2.676584E1,2.1059044E1,1.1708226E1,4.7525116E1,5.4829865E1,6.726216E1,2.2328617E1,2.95228E1,3.911737E1,3.2688404E1,1.980247E1,5.994464E1,7.256885E1,3.251302E1,2.3932491E1,6.6425858E0,2.8597542E1,3.784475E1,2.499596E1,0E0,8.616882E0,0E0,0E0,1.5509491E1,0E0,2.1791565E1,0E0,0E0,0E0,0E0,0E0,0E0,0E0,0E0,0E0,0E0,0E0,0E0,0E0,0E0,0E0,0E0,0E0,0E0,0E0,0E0,0E0,0E0,0E0,0E0],"parents":[2147483647,0,0,1,1,3,3,4,4,5,5,6,6,7,7,8,8,9,9,10,10,11,11,12,12,13,13,14,14,15,15,16,16,17,17,18,18,19,19,20,20,21,21,22,22,23,23,24,24,25,25,27,27,30,30,32,32],"right_children":[2,4,-1,6,8,10,12,14,16,18,20,22,24,26,28,30,32,34,36,38,40,42,44,46,48,50,-1,52,-1,-1,54,-1,56,-1,-1,-1,-1,-1,-1,-1,-1,-1,-1,-1,-1,-1,-1,-1,-1,-1,-1,-1,-1,-1,-1,-1,-1],"split_conditions":[5.58706E3,8.9E1,2.9106742E-1,8.6E1,3.6881E2,8E1,2.9112E2,9.9E1,3.8712E2,7.8E1,8.2E1,2.7239E2,6.75E2,1E0,1.9582E2,2E0,4.254E2,7.7E1,6.9386E2,4.3424E3,2.76207E3,5E0,8.7E1,2E0,7.1357E2,3E0,-3.707436E-1,4E0,-3.1789625E-1,-4.1764095E-1,3E0,-4.633654E-1,9.5E1,1.1618086E-3,-8.00841E-2,-2.7688837E-1,6.747444E-2,-1.5738392E-1,1.5213573E-1,5.2488197E-2,-5.0105523E-2,-3.7893754E-1,2.733341E-1,8.661659E-1,3.9955887E-1,-2.0977238E-2,-4.7883892E-1,3.750942E-1,3.5603877E-2,-3.6921206E-1,3.0776593E-1,-1.8359596E-1,5.8539414E-1,5.44257E-1,-3.0416957E-1,-3.5433285E-2,1.40630305E-2],"split_indices":[1,0,0,0,1,0,1,0,1,0,0,1,1,4,1,3,1,0,1,1,1,4,0,4,1,3,0,2,0,0,2,0,0,0,0,0,0,0,0,0,0,0,0,0,0,0,0,0,0,0,0,0,0,0,0,0,0],"split_type":[0,0,0,0,0,0,0,0,0,0,0,0,0,0,0,0,0,0,0,0,0,0,0,0,0,0,0,0,0,0,0,0,0,0,0,0,0,0,0,0,0,0,0,0,0,0,0,0,0,0,0,0,0,0,0,0,0],"sum_hessian":[3.0296785E4,3.0265797E4,3.098682E1,2.695001E4,3.3157874E3,2.5973338E4,9.766718E2,7.724607E1,3.2385413E3,2.4360455E4,1.6128835E3,3.507948E1,9.4159235E2,6.2051384E1,1.5194687E1,2.372077E1,3.2148206E3,2.371758E4,6.4287476E2,4.706326E2,1.142251E3,1.8737797E1,1.6341682E1,5.1135784E1,8.9045654E2,1.8116976E1,4.393441E1,9.334223E0,5.860464E0,5.0568767E0,1.8663893E1,1.3393197E1,3.2014272E3,2.3445438E4,2.721423E2,4.8273907E1,5.946008E2,3.8884705E2,8.178555E1,6.6707043E2,4.7518054E2,1.0796501E1,7.941295E0,6.816276E0,9.525406E0,2.003501E1,3.1100775E1,2.9622574E1,8.60834E2,7.5078626E0,1.0609113E1,1.052222E0,8.282001E0,1.7131378E1,1.5325154E0,1.5712954E3,1.6301318E3],"tree_param":{"num_deleted":"0","num_feature":"5","num_nodes":"57","size_leaf_vector":"1"}},{"base_weights":[-7.860709E-4,-1.5542909E-3,2.879234E-1,1.0686828E-3,-1.0246981E-1,-2.5108317E-3,1.6463366E-1,-5.092386E-1,4.4740662E-2,1.601677E-3,-1.10231176E-1,-3.9128444E-1,4.0355104E-1,-2.8661108E-1,-1.240962E0,5.4001826E-1,-4.250118E-2,-1.1322204E-3,2.4122521E-1,2.162817E-1,-2.4621215E-1,-7.9150754E-1,4.0179238E-1,6.594629E-1,-3.9054933E-1,3.3349243E-1,-4.8732638E-1,-3.8348618E-1,3.2815628E-2,-3.4714434E-1,1.4572855E0,-4.4173917E-1,8.34442E-2,7.25193E-4,-5.4752573E-2,1.4298917E-1,-2.0421433E-1,-4.476641E-2,2.9851016E-1,-4.287303E-2,-2.4694324E-1,-1.5105852E-1,-4.671856E-1,6.5037113E-1,3.3703685E-2,-2.3738503E-1,2.434239E-1,-4.2142883E-1,1.9679084E-1,-3.9211115E-1,2.3045543E-1,-4.2514816E-1,-5.3636197E-2,1.6995284E-1,-4.2583403E-1,-3.3497977E-1,5.132338E-1,5.034274E-1,1.3867264E-2],"categories":[],"categories_nodes":[],"categories_segments":[],"categories_sizes":[],"default_left":[0,0,0,0,0,0,0,0,0,0,0,0,0,0,0,0,0,0,0,0,0,0,0,0,0,0,0,0,0,0,0,0,0,0,0,0,0,0,0,0,0,0,0,0,0,0,0,0,0,0,0,0,0,0,0,0,0,0,0],"id":20,"left_children":[1,3,-1,5,7,9,11,13,15,17,19,21,23,25,27,29,31,33,35,37,39,41,43,45,47,49,51,-1,-1,53,55,-1,57,-1,-1,-1,-1,-1,-1,-1,-1,-1,-1,-1,-1,-1,-1,-1,-1,-1,-1,-1,-1,-1,-1,-1,-1,-1,-1],"loss_changes":[2.232717E1,8.00263E0,0E0,1.7253233E1,4.588544E1,1.2775248E1,8.39777E1,3.2812088E1,2.4362349E1,1.8197874E1,4.713803E1,6.0690193E1,9.005656E1,1.9754412E1,2.518608E0,6.921673E1,8.654427E1,1.7682905E1,6.833146E1,8.904922E1,4.4530273E1,2.716729E1,3.270611E1,7.439206E1,1.1589651E2,2.887671E1,3.397967E1,0E0,0E0,4.3646805E1,2.912181E1,0E0,2.615416E1,0E0,0E0,0E0,0E0,0E0,0E0,0E0,0E0,0E0,0E0,0E0,0E0,0E0,0E0,0E0,0E0,0E0,0E0,0E0,0E0,0E0,0E0,0E0,0E0,0E0,0E0],"parents":[2147483647,0,0,1,1,3,3,4,4,5,5,6,6,7,7,8,8,9,9,10,10,11,11,12,12,13,13,14,14,15,15,16,16,17,17,18,18,19,19,20,20,21,21,22,22,23,23,24,24,25,25,26,26,29,29,30,30,32,32],"right_children":[2,4,-1,6,8,10,12,14,16,18,20,22,24,26,28,30,32,34,36,38,40,42,44,46,48,50,52,-1,-1,54,56,-1,58,-1,-1,-1,-1,-1,-1,-1,-1,-1,-1,-1,-1,-1,-1,-1,-1,-1,-1,-1,-1,-1,-1,-1,-1,-1,-1],"split_conditions":[5.58706E3,9.8E1,2.879234E-1,9.6E1,9.9E1,9.2E1,2E0,4E0,8.477E2,9.1E1,1E0,3.82359E3,3.40444E3,9.8241E2,4.99165E3,6.9386E2,1.39486E3,8.9E1,3E0,3.84354E3,4.1298E3,2.7212E3,3.84354E3,8.0921E2,4E0,2E0,2.30798E3,-3.8348618E-1,3.2815628E-2,3.8712E2,1E0,-4.4173917E-1,1.4135E3,7.25193E-4,-5.4752573E-2,1.4298917E-1,-2.0421433E-1,-4.476641E-2,2.9851016E-1,-4.287303E-2,-2.4694324E-1,-1.5105852E-1,-4.671856E-1,6.5037113E-1,3.3703685E-2,-2.3738503E-1,2.434239E-1,-4.2142883E-1,1.9679084E-1,-3.9211115E-1,2.3045543E-1,-4.2514816E-1,-5.3636197E-2,1.6995284E-1,-4.2583403E-1,-3.3497977E-1,5.132338E-1,5.034274E-1,1.3867264E-2],"split_indices":[1,0,0,0,0,0,2,4,1,0,3,1,1,1,1,1,1,0,3,1,1,1,1,1,4,4,1,0,0,1,2,0,1,0,0,0,0,0,0,0,0,0,0,0,0,0,0,0,0,0,0,0,0,0,0,0,0,0,0],"split_type":[0,0,0,0,0,0,0,0,0,0,0,0,0,0,0,0,0,0,0,0,0,0,0,0,0,0,0,0,0,0,0,0,0,0,0,0,0,0,0,0,0,0,0,0,0,0,0,0,0,0,0,0,0,0,0,0,0,0,0],"sum_hessian":[3.025474E4,3.023156E4,2.3180428E1,2.9466658E4,7.649014E2,2.8836574E4,6.3008527E2,2.0260591E2,5.622955E2,2.7777096E4,1.0594789E3,1.8920387E2,4.4088138E2,1.5640979E2,4.619612E1,8.34357E1,4.788598E2,2.746474E4,3.123537E2,3.11331E2,7.481479E2,1.2574774E2,6.345613E1,3.335568E2,1.07324615E2,3.8085213E1,1.1832458E2,4.500548E1,1.1906394E0,4.2729816E1,4.0705883E1,3.789662E1,4.4096317E2,2.6938541E4,5.261998E2,2.4920534E2,6.314835E1,2.1243445E2,9.889656E1,6.3559045E2,1.125574E2,9.258694E1,3.3160805E1,8.021527E0,5.54346E1,3.1225258E1,3.023315E2,5.432971E1,5.2994904E1,7.5572667E0,3.0527948E1,2.858519E1,8.973939E1,2.3326336E1,1.9403482E1,3.344292E0,3.736159E1,9.05207E0,4.319111E2],"tree_param":{"num_deleted":"0","num_feature":"5","num_nodes":"59","size_leaf_vector":"1"}},{"base_weights":[-9.754328E-4,-1.5525522E-3,2.839323E-1,-3.1149879E-3,1.681283E-1,7.2002853E-3,-2.7390037E-2,6.653479E-2,3.767322E-1,-1.270894E-2,1.1939206E-1,-9.316241E-2,3.6167666E-2,-2.31956E-1,2.2915609E-1,-2.1598783E-1,5.040472E-1,7.769705E-3,-7.497811E-2,2.3981215E-1,-2.035416E-2,-1.2949785E0,-7.019316E-2,6.035617E-1,1.44466E-2,4.9955685E-2,-3.3489275E-1,9.066738E-2,3.1894088E-1,-4.2452088E-1,2.2646295E-1,2.1594994E-1,8.0170643E-1,-1.4682632E-2,1.7411605E-2,8.863138E-3,-5.9157167E-2,1.5612653E-1,3.640895E-2,9.831773E-2,-4.556902E-2,-5.0986826E-1,-1.7468876E-1,-3.959801E-1,-1.7743282E-2,1.3271035E-1,5.965112E-1,1.5337981E-2,-1.2248262E-1,-3.5335135E-1,7.916426E-2,6.9294155E-2,-7.368016E-2,6.832091E-2,1.6290002E-1,6.3456915E-2,-2.5788525E-1,1.6895223E-1,-3.5073957E-1,-1.7057209E-1,2.7592483E-1],"categories":[],"categories_nodes":[],"categories_segments":[],"categories_sizes":[],"default_left":[0,0,0,0,0,0,0,0,0,0,0,0,0,0,0,0,0,0,0,0,0,0,0,0,0,0,0,0,0,0,0,0,0,0,0,0,0,0,0,0,0,0,0,0,0,0,0,0,0,0,0,0,0,0,0,0,0,0,0,0,0],"id":21,"left_children":[1,3,-1,5,7,9,11,13,15,17,19,21,23,25,27,29,31,33,35,37,39,41,43,45,47,49,-1,51,53,55,-1,57,59,-1,-1,-1,-1,-1,-1,-1,-1,-1,-1,-1,-1,-1,-1,-1,-1,-1,-1,-1,-1,-1,-1,-1,-1,-1,-1,-1,-1],"loss_changes":[1.6518238E1,8.0044565E0,0E0,7.491249E0,5.8130693E0,4.689788E1,3.729831E1,9.104563E0,6.901046E0,2.2739777E1,5.325546E1,1.2094646E2,5.5917694E1,1.6574894E1,1.4782295E0,3.684288E0,6.2064075E0,3.8260654E1,5.637964E1,5.6434196E1,6.715429E1,2.2703445E1,5.9345318E1,3.6463192E1,6.780402E1,1.3758876E1,0E0,2.372066E0,1.3709354E0,4.144006E0,0E0,1.9497673E1,6.3816814E0,0E0,0E0,0E0,0E0,0E0,0E0,0E0,0E0,0E0,0E0,0E0,0E0,0E0,0E0,0E0,0E0,0E0,0E0,0E0,0E0,0E0,0E0,0E0,0E0,0E0,0E0,0E0,0E0],"parents":[2147483647,0,0,1,1,3,3,4,4,5,5,6,6,7,7,8,8,9,9,10,10,11,11,12,12,13,13,14,14,15,15,16,16,17,17,18,18,19,19,20,20,21,21,22,22,23,23,24,24,25,25,27,27,28,28,29,29,31,31,32,32],"right_children":[2,4,-1,6,8,10,12,14,16,18,20,22,24,26,28,30,32,34,36,38,40,42,44,46,48,50,-1,52,54,56,-1,58,60,-1,-1,-1,-1,-1,-1,-1,-1,-1,-1,-1,-1,-1,-1,-1,-1,-1,-1,-1,-1,-1,-1,-1,-1,-1,-1,-1,-1],"split_conditions":[5.58706E3,4.97234E3,2.839323E-1,3.54198E3,3E0,3.09498E3,2E0,4.99165E3,2E0,3E0,5.1E1,3.57937E3,3.57937E3,4.8E1,2E0,9.7E1,6.6E1,4.8E1,1.66728E3,3.21317E3,1E0,7E1,2E0,1E2,9.1E1,1E0,-3.3489275E-1,5.7E1,8E1,3.8E1,2.2646295E-1,3.9E1,1E0,-1.4682632E-2,1.7411605E-2,8.863138E-3,-5.9157167E-2,1.5612653E-1,3.640895E-2,9.831773E-2,-4.556902E-2,-5.0986826E-1,-1.7468876E-1,-3.959801E-1,-1.7743282E-2,1.3271035E-1,5.965112E-1,1.5337981E-2,-1.2248262E-1,-3.5335135E-1,7.916426E-2,6.9294155E-2,-7.368016E-2,6.832091E-2,1.6290002E-1,6.3456915E-2,-2.5788525E-1,1.6895223E-1,-3.5073957E-1,-1.7057209E-1,2.7592483E-1],"split_indices":[1,1,0,1,3,1,3,1,4,3,0,1,1,0,2,0,0,0,1,1,3,0,0,0,0,3,0,0,0,0,0,0,2,0,0,0,0,0,0,0,0,0,0,0,0,0,0,0,0,0,0,0,0,0,0,0,0,0,0,0,0],"split_type":[0,0,0,0,0,0,0,0,0,0,0,0,0,0,0,0,0,0,0,0,0,0,0,0,0,0,0,0,0,0,0,0,0,0,0,0,0,0,0,0,0,0,0,0,0,0,0,0,0,0,0,0,0,0,0,0,0,0,0,0,0],"sum_hessian":[3.020676E4,3.018937E4,1.7391514E1,2.9914893E4,2.7447723E2,2.0994385E4,8.920507E3,1.854695E2,8.900773E1,1.783103E4,3.1633557E3,4.3836465E3,4.5368604E3,6.525953E1,1.2020998E2,1.5614999E1,7.339272E1,1.3418818E4,4.4122104E3,1.6987861E3,1.4645696E3,8.117102E1,4.3024756E3,1.6628941E2,4.370571E3,5.0200317E1,1.505921E1,4.8071632E1,7.213834E1,1.33173E1,2.2976987E0,3.8172226E1,3.5220497E1,6.305353E3,7.113466E3,2.3786414E3,2.0335692E3,5.032282E2,1.195558E3,4.0126782E2,1.0633018E3,5.0894196E1,3.0276823E1,3.6666435E1,4.265809E3,1.5013313E2,1.615628E1,4.0224207E3,3.4815036E2,6.7802396E0,4.342008E1,3.4139492E1,1.3932139E1,5.2702084E1,1.9436262E1,5.618203E0,7.699097E0,3.0995428E1,7.1767983E0,2.4907246E0,3.2729774E1],"tree_param":{"num_deleted":"0","num_feature":"5","num_nodes":"61","size_leaf_vector":"1"}},{"base_weights":[-8.5079507E-4,-1.2860212E-3,2.7889955E-1,1.5108097E-1,-2.777132E-3,7.791988E-1,-5.313124E-2,-4.6964776E-2,4.444887E-3,1.1704502E0,-4.4023305E-1,5.13767E-1,-2.6785117E-1,-1.6822377E-2,-6.7936474E-1,7.108917E-1,-9.432997E-5,-3.6635023E-1,1.3504498E0,9.294583E-1,-1.280164E0,-6.4626765E-1,1.4846574E-2,2.1639401E-2,-2.0729001E-1,-4.9430296E-1,-4.9436238E-1,-4.4421792E-1,8.839355E-1,8.0362804E-2,-7.3576984E-3,1.9436981E-1,4.6055636E-1,3.7387446E-1,-3.491578E-1,-4.3422827E-1,4.879001E-2,-7.775426E-2,-4.711793E-1,-1.2548101E-1,1.4910683E-1,-3.3897348E-3,1.7717795E-1,-2.4221525E-1,5.6148963E-3,-2.0901081E-1,1.2684685E-1,2.9767558E-1,-4.1002917E-1,4.7562834E-2,-8.244662E-2,-1.0489526E-1,4.886476E-5],"categories":[],"categories_nodes":[],"categories_segments":[],"categories_sizes":[],"default_left":[0,0,0,0,0,0,0,0,0,0,0,0,0,0,0,0,0,0,0,0,0,0,0,0,0,0,0,0,0,0,0,0,0,0,0,0,0,0,0,0,0,0,0,0,0,0,0,0,0,0,0,0,0],"id":22,"left_children":[1,3,-1,5,7,9,11,13,15,17,-1,19,21,23,25,27,29,-1,31,33,35,37,39,41,43,45,-1,-1,47,49,51,-1,-1,-1,-1,-1,-1,-1,-1,-1,-1,-1,-1,-1,-1,-1,-1,-1,-1,-1,-1,-1,-1],"loss_changes":[1.2211775E1,6.847566E0,0E0,3.750833E1,9.524948E0,6.476795E1,2.7083275E1,7.991421E1,8.226706E1,2.8187546E1,0E0,4.6794205E1,1.7255604E1,2.933073E1,3.337108E1,6.342527E1,1.4897745E1,0E0,6.5079727E0,3.475949E1,3.1133575E0,2.4265755E1,1.968286E1,6.2441162E1,9.124448E1,3.0284695E1,0E0,0E0,3.85166E1,5.8658035E1,6.019094E1,0E0,0E0,0E0,0E0,0E0,0E0,0E0,0E0,0E0,0E0,0E0,0E0,0E0,0E0,0E0,0E0,0E0,0E0,0E0,0E0,0E0,0E0],"parents":[2147483647,0,0,1,1,3,3,4,4,5,5,6,6,7,7,8,8,9,9,11,11,12,12,13,13,14,14,15,15,16,16,18,18,19,19,20,20,21,21,22,22,23,23,24,24,25,25,28,28,29,29,30,30],"right_children":[2,4,-1,6,8,10,12,14,16,18,-1,20,22,24,26,28,30,-1,32,34,36,38,40,42,44,46,-1,-1,48,50,52,-1,-1,-1,-1,-1,-1,-1,-1,-1,-1,-1,-1,-1,-1,-1,-1,-1,-1,-1,-1,-1,-1],"split_conditions":[5.58706E3,1E0,2.7889955E-1,7.8978E2,8.6721E2,3E0,1E0,8.2812E2,8.873E2,4.0586E2,-4.4023305E-1,4E0,3E0,7.1357E2,4E0,1.9E1,1.21777E3,-3.6635023E-1,3E0,3.19478E3,4.55524E3,2E0,3E0,6.9386E2,7.5321E2,8.9E1,-4.9436238E-1,-4.4421792E-1,9.1E1,4E0,1.31421E3,1.9436981E-1,4.6055636E-1,3.7387446E-1,-3.491578E-1,-4.3422827E-1,4.879001E-2,-7.775426E-2,-4.711793E-1,-1.2548101E-1,1.4910683E-1,-3.3897348E-3,1.7717795E-1,-2.4221525E-1,5.6148963E-3,-2.0901081E-1,1.2684685E-1,2.9767558E-1,-4.1002917E-1,4.7562834E-2,-8.244662E-2,-1.0489526E-1,4.886476E-5],"split_indices":[1,0,0,1,1,2,3,1,1,1,0,4,4,1,2,0,1,0,4,1,1,4,2,1,1,0,0,0,0,2,1,0,0,0,0,0,0,0,0,0,0,0,0,0,0,0,0,0,0,0,0,0,0],"split_type":[0,0,0,0,0,0,0,0,0,0,0,0,0,0,0,0,0,0,0,0,0,0,0,0,0,0,0,0,0,0,0,0,0,0,0,0,0,0,0,0,0,0,0,0,0,0,0,0,0,0,0,0,0],"sum_hessian":[3.014971E4,3.0136613E4,1.3097048E1,2.9109576E2,2.9845518E4,7.072953E1,2.2036623E2,4.191919E3,2.56536E4,6.064693E1,1.0082602E1,6.015466E1,1.6021156E2,4.0021873E3,1.8973169E2,1.6278926E2,2.5490809E4,3.840096E0,5.6806835E1,4.922913E1,1.0925531E1,6.795782E1,9.2253746E1,3.3305288E3,6.716586E2,1.6056204E2,2.916964E1,1.1359758E1,1.514295E2,2.109838E3,2.338097E4,1.2765885E1,4.404095E1,4.310981E1,6.1193185E0,9.787641E0,1.1378909E0,4.880139E1,1.915643E1,4.866909E1,4.3584656E1,3.1491921E3,1.8133647E2,1.8305005E2,4.8860858E2,1.3173082E2,2.8831223E1,1.4500993E2,6.419561E0,1.7296724E3,3.8016565E2,5.0168518E2,2.2879287E4],"tree_param":{"num_deleted":"0","num_feature":"5","num_nodes":"53","size_leaf_vector":"1"}},{"base_weights":[-8.8911614E-4,-1.2188996E-3,2.7264717E-1,-2.6467812E-1,-9.943671E-4,-6.3417736E-3,3.4735013E-2,-9.137807E-4,-3.8973495E-1,-2.5845092E-2,2.8894505E-1,2.9774804E-3,-1.6707996E-1,-8.238717E-1,7.5407214E-2,-1.0319713E0,-1.7760819E-2,1.23757035E-1,5.7295746E-1,-6.534559E-4,4.7927555E-2,-3.0021286E-2,-4.257997E-1,-2.9203734E-1,6.294155E-1,1.4672838E-1,-2.9206327E-1,-3.594609E-1,-1.1341809E-2,1.2394566E-1,-1.38369845E-2,3.21026E-1,1.3159086E-2,4.2399266E-1,1.1352489E-1],"categories":[],"categories_nodes":[],"categories_segments":[],"categories_sizes":[],"default_left":[0,0,0,0,0,0,0,0,0,0,0,0,0,0,0,0,0,0,0,0,0,0,0,0,0,0,0,0,0,0,0,0,0,0,0],"id":23,"left_children":[1,3,-1,-1,5,7,9,11,13,15,17,19,21,23,25,27,29,31,33,-1,-1,-1,-1,-1,-1,-1,-1,-1,-1,-1,-1,-1,-1,-1,-1],"loss_changes":[9.035845E0,5.954579E0,0E0,0E0,5.7508025E0,5.448375E1,6.0350857E1,1.6693346E1,7.3867004E1,2.5726974E1,3.5310825E1,2.0391405E1,4.9429253E1,8.4706406E1,7.74391E1,4.121359E0,3.8407734E1,3.6100197E1,4.475936E1,0E0,0E0,0E0,0E0,0E0,0E0,0E0,0E0,0E0,0E0,0E0,0E0,0E0,0E0,0E0,0E0],"parents":[2147483647,0,0,1,1,4,4,5,5,6,6,7,7,8,8,9,9,10,10,11,11,12,12,13,13,14,14,15,15,16,16,17,17,18,18],"right_children":[2,4,-1,-1,6,8,10,12,14,16,18,20,22,24,26,28,30,32,34,-1,-1,-1,-1,-1,-1,-1,-1,-1,-1,-1,-1,-1,-1,-1,-1],"split_conditions":[5.58706E3,1.3946E2,2.7264717E-1,-2.6467812E-1,4.3816E3,4.30373E3,5E0,9.8E1,3E0,2E0,6.8E1,9.5E1,4.03616E3,9.9E1,4E0,4.99165E3,7E0,4.42119E3,7.1E1,-6.534559E-4,4.7927555E-2,-3.0021286E-2,-4.257997E-1,-2.9203734E-1,6.294155E-1,1.4672838E-1,-2.9206327E-1,-3.594609E-1,-1.1341809E-2,1.2394566E-1,-1.38369845E-2,3.21026E-1,1.3159086E-2,4.2399266E-1,1.1352489E-1],"split_indices":[1,1,0,0,1,1,4,0,2,0,0,0,1,0,4,1,0,1,0,0,0,0,0,0,0,0,0,0,0,0,0,0,0,0,0],"split_type":[0,0,0,0,0,0,0,0,0,0,0,0,0,0,0,0,0,0,0,0,0,0,0,0,0,0,0,0,0,0,0,0,0,0,0],"sum_hessian":[3.0113963E4,3.0104049E4,9.91447E0,6.669159E0,3.0097379E4,2.6179994E4,3.9173838E3,2.5815508E4,3.6448767E2,3.1642246E3,7.531594E2,2.5225756E4,5.897519E2,1.8812836E2,1.7635933E2,2.4212496E1,3.140012E3,4.7710193E2,2.7605746E2,2.4423584E4,8.0217145E2,5.608218E2,2.8930103E1,1.7960065E2,8.527702E0,1.26861275E2,4.949805E1,2.0568123E1,3.6443734E0,1.93073E2,2.946939E3,3.6178406E1,4.4092352E2,5.0716164E1,2.2534131E2],"tree_param":{"num_deleted":"0","num_feature":"5","num_nodes":"35","size_leaf_vector":"1"}},{"base_weights":[-8.507617E-4,-1.978349E-3,2.1181326E-1,9.182012E-2,-3.7164788E-3,1.7242604E-1,2.6500905E-1,-2.1107985E-1,3.1719795E-1,-1.0228758E-1,8.839299E-4,1.19828045E-1,3.9411756E-1,1.5356663E-1,-8.264731E-1,7.470216E-1,-2.7050495E-1,-2.0711415E-1,2.1923393E-1,5.6990176E-2,-5.7686144E-3,5.2675743E-2,3.2059386E-1,4.587314E-1,-8.9052334E-2,4.7626552E-1,-8.076302E-1,-1.1477669E-1,-4.56931E-1,6.369007E-1,5.9509325E-1,-3.8601542E-1,1.373683E-1,-1.6741815E-1,-4.7677645E-1,5.221752E-1,-5.774318E-1,-6.625534E-2,2.17622E-1,-2.586053E-1,-4.1980727E-4,1.2481043E-1,-8.858279E-1,4.9331546E-1,-2.3985197E-1,2.444388E-1,3.5728717E-1,2.3987494E-1,-3.7451476E-2,-4.2815778E-1,1.0669156E-1,2.2314921E-1,-4.3654737E-1,1.1245276E-1,5.144219E-1,-4.11781E-1,1.0761325E-1,1.4812956E-2,-1.00802E-1,1.7845568E-1,-4.4026157E-1,-1.1159312E-3,-4.7802877E-1,1.075886E-1,-4.8588116E-2,7.166069E-2,-4.9898574E-1,-1.3410044E-1,3.0056876E-1,1.5382933E-3,-1.8830286E-2,4.8461165E-3,1.3327374E-1,-8.7967205E-1,1.7955709E-1,1.9023688E-1,-7.005929E-2,-4.3986094E-1,1.9270714E-1,-1.0210536E-2,1.562059E-1],"categories":[],"categories_nodes":[],"categories_segments":[],"categories_sizes":[],"default_left":[0,0,0,0,0,0,0,0,0,0,0,0,0,0,0,0,0,0,0,0,0,0,0,0,0,0,0,0,0,0,0,0,0,0,0,0,0,0,0,0,0,0,0,0,0,0,0,0,0,0,0,0,0,0,0,0,0,0,0,0,0,0,0,0,0,0,0,0,0,0,0,0,0,0,0,0,0,0,0,0,0],"id":24,"left_children":[1,3,5,7,9,11,-1,13,15,17,19,21,23,25,27,29,31,33,35,37,39,41,43,45,-1,47,49,51,-1,-1,53,-1,55,57,-1,59,61,63,65,67,69,71,73,75,77,-1,79,-1,-1,-1,-1,-1,-1,-1,-1,-1,-1,-1,-1,-1,-1,-1,-1,-1,-1,-1,-1,-1,-1,-1,-1,-1,-1,-1,-1,-1,-1,-1,-1,-1,-1],"loss_changes":[7.2152133E0,4.879844E0,4.045259E0,3.7241997E1,1.3325599E1,1.7152166E0,0E0,5.239489E1,7.917559E1,4.420841E1,1.047986E1,1.6494603E0,1.4106665E0,4.601214E1,4.2869987E1,3.6540436E1,5.521892E1,5.3977425E1,7.817204E1,5.8935707E1,3.3946175E1,6.4617896E0,3.098135E0,6.660347E-1,0E0,2.1625246E1,2.7421995E1,5.175192E1,0E0,0E0,3.986023E1,0E0,3.2465767E1,3.518338E1,0E0,3.4752712E1,5.2084732E1,6.857111E1,5.2045177E1,1.2393854E2,8.502612E0,3.0470757E0,2.247038E1,2.5898523E0,9.515609E0,0E0,1.4502718E0,0E0,0E0,0E0,0E0,0E0,0E0,0E0,0E0,0E0,0E0,0E0,0E0,0E0,0E0,0E0,0E0,0E0,0E0,0E0,0E0,0E0,0E0,0E0,0E0,0E0,0E0,0E0,0E0,0E0,0E0,0E0,0E0,0E0,0E0],"parents":[2147483647,0,0,1,1,2,2,3,3,4,4,5,5,7,7,8,8,9,9,10,10,11,11,12,12,13,13,14,14,15,15,16,16,17,17,18,18,19,19,20,20,21,21,22,22,23,23,25,25,26,26,27,27,30,30,32,32,33,33,35,35,36,36,37,37,38,38,39,39,40,40,41,41,42,42,43,43,44,44,46,46],"right_children":[2,4,6,8,10,12,-1,14,16,18,20,22,24,26,28,30,32,34,36,38,40,42,44,46,-1,48,50,52,-1,-1,54,-1,56,58,-1,60,62,64,66,68,70,72,74,76,78,-1,80,-1,-1,-1,-1,-1,-1,-1,-1,-1,-1,-1,-1,-1,-1,-1,-1,-1,-1,-1,-1,-1,-1,-1,-1,-1,-1,-1,-1,-1,-1,-1,-1,-1,-1],"split_conditions":[4.99165E3,2E0,5.58706E3,2.23142E3,7E0,4E0,2.6500905E-1,1E0,3.19478E3,4.01907E3,1.6E1,7.9E1,8.5E1,3E0,2E0,2.26925E3,2E0,3.86299E3,3E0,3E0,1.8E1,6.9E1,5E0,1.8E1,-8.9052334E-2,1.09983E3,5E0,1.15974E3,-4.56931E-1,6.369007E-1,3.17531E3,-3.8601542E-1,1E0,2E0,-4.7677645E-1,4.91295E3,2E0,8.477E2,4.89148E3,4.73359E3,4.57574E3,5E0,3E0,3E0,2E0,2.444388E-1,4.3E1,2.3987494E-1,-3.7451476E-2,-4.2815778E-1,1.0669156E-1,2.2314921E-1,-4.3654737E-1,1.1245276E-1,5.144219E-1,-4.11781E-1,1.0761325E-1,1.4812956E-2,-1.00802E-1,1.7845568E-1,-4.4026157E-1,-1.1159312E-3,-4.7802877E-1,1.075886E-1,-4.8588116E-2,7.166069E-2,-4.9898574E-1,-1.3410044E-1,3.0056876E-1,1.5382933E-3,-1.8830286E-2,4.8461165E-3,1.3327374E-1,-8.7967205E-1,1.7955709E-1,1.9023688E-1,-7.005929E-2,-4.3986094E-1,1.9270714E-1,-1.0210536E-2,1.562059E-1],"split_indices":[1,0,1,1,0,2,0,0,1,1,0,0,0,2,4,1,3,1,2,2,0,0,4,0,0,1,4,1,0,0,1,0,2,2,0,1,3,1,1,1,1,4,3,3,2,0,0,0,0,0,0,0,0,0,0,0,0,0,0,0,0,0,0,0,0,0,0,0,0,0,0,0,0,0,0,0,0,0,0,0,0],"split_type":[0,0,0,0,0,0,0,0,0,0,0,0,0,0,0,0,0,0,0,0,0,0,0,0,0,0,0,0,0,0,0,0,0,0,0,0,0,0,0,0,0,0,0,0,0,0,0,0,0,0,0,0,0,0,0,0,0,0,0,0,0,0,0,0,0,0,0,0,0,0,0,0,0,0,0,0,0,0,0,0,0],"sum_hessian":[3.0086064E4,2.992837E4,1.5769551E2,5.4355414E2,2.9384814E4,1.5014603E2,7.549482E0,2.319222E2,3.1163193E2,1.3093195E3,2.8075494E4,1.22599E2,2.7547028E1,1.4610141E2,8.582079E1,1.7983577E2,1.3179616E2,9.876643E2,3.2165512E2,2.9752505E3,2.5100244E4,9.281616E1,2.978284E1,2.549866E1,2.0483696E0,1.0975746E2,3.634394E1,4.302749E1,4.27933E1,1.6592009E1,1.6324376E2,3.7130672E1,9.466548E1,9.6117975E2,2.6484585E1,2.3328891E2,8.836622E1,1.6838762E3,1.2913744E3,5.1901874E2,2.4581227E4,8.69965E1,5.8196597E0,2.285808E1,6.9247603E0,4.0946536E0,2.1404005E1,7.115494E1,3.8602524E1,2.3565804E1,1.2778138E1,2.649845E1,1.652904E1,1.3752531E2,2.5718443E1,1.1437691E1,8.322779E1,4.2078394E2,5.403958E2,2.2574431E2,7.5445967E0,5.711708E1,3.1249136E1,3.090586E2,1.3748176E3,1.2778131E3,1.3561321E1,4.520936E2,6.692512E1,2.2573635E4,2.0075913E3,6.5699295E1,2.1297205E1,2.0365374E0,3.783122E0,1.9255417E1,3.6026635E0,2.6203153E0,4.3044453E0,6.537983E0,1.4866022E1],"tree_param":{"num_deleted":"0","num_feature":"5","num_nodes":"81","size_leaf_vector":"1"}},{"base_weights":[-9.346363E-4,-3.1612605E-2,5.4991376E-3,-3.095059E-3,-8.7191886E-1,1.5913343E-1,-3.2135523E-3,4.3929923E-2,-1.4147775E-1,-1.2679784E0,-3.3068955E-1,3.0980864E-1,-2.3194216E-1,-2.5798216E-1,2.233506E-3,2.7097948E-3,3.904266E-1,-4.7313568E-1,-1.0453833E-1,-3.3391364E-2,-4.827872E-1,6.792892E-1,-6.8203783E-1,4.121715E-1,-2.1913569E-1,-6.903017E-2,-4.9193668E-1,7.189895E-1,-3.7961128E-1,2.0769109E-1,-5.091553E-3,-5.8726534E-2,3.1298384E-1,6.7705765E-2,1.1053594E0,-4.237949E-1,1.9510912E-2,-3.9254138E-1,5.107096E-1,-1.7137412E-2,-4.6527103E-1,-2.288553E-1,5.1018655E-1,8.266075E-1,-1.1991137E0,7.165557E-1,-2.9127398E-1,-4.2490384E-1,1.5241497E0,-7.939381E-1,-8.9376844E-2,3.5638827E-1,-9.6217006E-1,-2.8716645E-1,4.178954E-3,9.47333E-3,-7.461321E-2,-1.6589391E-1,1.4582272E-1,6.0598504E-2,-4.7725803E-1,-3.1729895E-1,3.6399567E-1,-3.418957E-2,-3.713901E-1,-3.0518625E-2,1.0685692E-1,-4.3927023E-1,1.749216E-1,2.3898083E-1,-2.3641978E-1,6.0728002E-2,2.239752E-1,4.810391E-1,3.4654802E-3,-1.07368715E-1,-4.8662236E-1,-1.63708E-1,4.0270916E-1,-4.894332E-1,8.884077E-3,5.832765E-1,-3.7634006E-1,-9.229464E-3,-4.4665498E-1,-1.8458802E-1,2.4494708E-1,-1.0460076E-1,1.3385494E-1,1.9005352E-1,-5.0903064E-1,-1.4545114E-1,4.1723843E-3,6.326326E-2,-1.1332264E-3],"categories":[],"categories_nodes":[],"categories_segments":[],"categories_sizes":[],"default_left":[0,0,0,0,0,0,0,0,0,0,0,0,0,0,0,0,0,0,0,0,0,0,0,0,0,0,0,0,0,0,0,0,0,0,0,0,0,0,0,0,0,0,0,0,0,0,0,0,0,0,0,0,0,0,0,0,0,0,0,0,0,0,0,0,0,0,0,0,0,0,0,0,0,0,0,0,0,0,0,0,0,0,0,0,0,0,0,0,0,0,0,0,0,0,0],"id":25,"left_children":[1,3,5,7,9,11,13,15,17,19,21,23,25,27,29,31,33,-1,35,37,-1,-1,39,41,43,45,-1,47,49,51,53,55,57,59,61,63,65,-1,-1,67,-1,69,71,73,75,77,79,-1,81,83,85,87,89,91,93,-1,-1,-1,-1,-1,-1,-1,-1,-1,-1,-1,-1,-1,-1,-1,-1,-1,-1,-1,-1,-1,-1,-1,-1,-1,-1,-1,-1,-1,-1,-1,-1,-1,-1,-1,-1,-1,-1,-1,-1],"loss_changes":[5.925644E0,1.2472043E2,3.3220615E1,3.2770454E1,3.6200027E1,7.8555214E1,3.2594044E1,5.3682392E1,6.756919E1,4.13647E1,6.859334E1,5.2171654E1,8.498018E1,5.869518E1,3.460991E1,6.406811E1,9.2121E1,0E0,4.9364883E1,5.160377E1,0E0,0E0,3.783546E1,5.0775528E1,1.6149554E2,5.844824E1,0E0,9.6337494E1,5.2584393E1,1.3805719E2,5.8067852E1,4.8140923E1,8.353464E1,6.1879116E1,3.028923E1,8.784137E1,3.6711285E1,0E0,0E0,3.3978977E1,0E0,6.2343723E1,5.0751465E1,4.8330746E1,2.833197E1,5.9067116E1,1.12172585E2,0E0,4.943535E1,9.554758E1,1.2371422E2,4.4670296E1,1.06042366E2,4.2058018E1,3.5358807E1,0E0,0E0,0E0,0E0,0E0,0E0,0E0,0E0,0E0,0E0,0E0,0E0,0E0,0E0,0E0,0E0,0E0,0E0,0E0,0E0,0E0,0E0,0E0,0E0,0E0,0E0,0E0,0E0,0E0,0E0,0E0,0E0,0E0,0E0,0E0,0E0,0E0,0E0,0E0,0E0],"parents":[2147483647,0,0,1,1,2,2,3,3,4,4,5,5,6,6,7,7,8,8,9,9,10,10,11,11,12,12,13,13,14,14,15,15,16,16,18,18,19,19,22,22,23,23,24,24,25,25,27,27,28,28,29,29,30,30,31,31,32,32,33,33,34,34,35,35,36,36,39,39,41,41,42,42,43,43,44,44,45,45,46,46,48,48,49,49,50,50,51,51,52,52,53,53,54,54],"right_children":[2,4,6,8,10,12,14,16,18,20,22,24,26,28,30,32,34,-1,36,38,-1,-1,40,42,44,46,-1,48,50,52,54,56,58,60,62,64,66,-1,-1,68,-1,70,72,74,76,78,80,-1,82,84,86,88,90,92,94,-1,-1,-1,-1,-1,-1,-1,-1,-1,-1,-1,-1,-1,-1,-1,-1,-1,-1,-1,-1,-1,-1,-1,-1,-1,-1,-1,-1,-1,-1,-1,-1,-1,-1,-1,-1,-1,-1,-1,-1],"split_conditions":[1.01831E3,9.8241E2,1.21777E3,7.3E1,6.6E1,4E0,1.31421E3,6.6E1,7.4E1,9E0,6.7E1,4E0,8.4E1,8E0,1.43257E3,8.6721E2,4E0,-4.7313568E-1,2E0,8E0,-4.827872E-1,6.792892E-1,9.9971E2,1.9E1,1E0,1.4E1,-4.9193668E-1,4E0,2E0,5E0,1.57251E3,4.4E1,1.8E1,8.873E2,3.1029E2,7.1357E2,4E0,-3.9254138E-1,5.107096E-1,3E0,-4.6527103E-1,1E0,2E0,1E0,1.08032E3,3E0,1.08032E3,-4.2490384E-1,2E0,4.4E1,7.4E1,1.7E1,2E1,4E0,1.68668E3,9.47333E-3,-7.461321E-2,-1.6589391E-1,1.4582272E-1,6.0598504E-2,-4.7725803E-1,-3.1729895E-1,3.6399567E-1,-3.418957E-2,-3.713901E-1,-3.0518625E-2,1.0685692E-1,-4.3927023E-1,1.749216E-1,2.3898083E-1,-2.3641978E-1,6.0728002E-2,2.239752E-1,4.810391E-1,3.4654802E-3,-1.07368715E-1,-4.8662236E-1,-1.63708E-1,4.0270916E-1,-4.894332E-1,8.884077E-3,5.832765E-1,-3.7634006E-1,-9.229464E-3,-4.4665498E-1,-1.8458802E-1,2.4494708E-1,-1.0460076E-1,1.3385494E-1,1.9005352E-1,-5.0903064E-1,-1.4545114E-1,4.1723843E-3,6.326326E-2,-1.1332264E-3],"split_indices":[1,1,1,0,0,4,1,0,0,0,0,2,0,0,1,1,2,0,4,0,0,0,1,0,4,0,0,4,3,4,1,0,0,1,1,1,2,0,0,4,0,4,3,3,1,2,1,0,2,0,0,0,0,4,1,0,0,0,0,0,0,0,0,0,0,0,0,0,0,0,0,0,0,0,0,0,0,0,0,0,0,0,0,0,0,0,0,0,0,0,0,0,0,0,0],"split_type":[0,0,0,0,0,0,0,0,0,0,0,0,0,0,0,0,0,0,0,0,0,0,0,0,0,0,0,0,0,0,0,0,0,0,0,0,0,0,0,0,0,0,0,0,0,0,0,0,0,0,0,0,0,0,0,0,0,0,0,0,0,0,0,0,0,0,0,0,0,0,0,0,0,0,0,0,0,0,0,0,0,0,0,0,0,0,0,0,0,0,0,0,0,0,0],"sum_hessian":[3.0020363E4,5.2037183E3,2.4816645E4,5.0338867E3,1.6983176E2,1.3309105E3,2.3485734E4,3.7576504E3,1.2762362E3,9.7292496E1,7.253925E1,9.608992E2,3.700114E2,4.906531E2,2.2995082E4,3.3590564E3,3.9859406E2,3.0968252E1,1.245268E3,2.1309618E1,7.598288E1,8.000989E0,6.453827E1,8.052798E2,1.5561935E2,3.3257574E2,3.7435677E1,5.37778E1,4.3687527E2,7.906659E2,2.2204416E4,2.8045479E3,5.545084E2,2.753815E2,1.2321257E2,3.4778427E2,8.9748364E2,1.2426977E1,8.882642E0,3.713805E1,2.7400219E1,1.0662276E2,6.9865704E2,7.535929E1,8.026006E1,7.2848206E1,2.5972754E2,1.451747E1,3.926033E1,1.7924991E2,2.5762537E2,7.021174E2,8.854847E1,7.055828E2,2.1498832E4,1.9015342E3,9.030137E2,9.200764E1,4.6250082E2,2.5556718E2,1.981432E1,5.4391656E0,1.1777341E2,2.5274373E2,9.504055E1,6.6037665E2,2.3710695E2,1.0465745E1,2.6672304E1,3.747609E1,6.914667E1,3.043229E2,3.9433414E2,3.8088554E1,3.727074E1,2.7470575E1,5.278949E1,2.4188416E1,4.865979E1,4.9385876E1,2.1034166E2,3.4364902E1,4.8954277E0,8.592678E1,9.3323135E1,1.6319849E2,9.442689E1,7.899284E1,6.231246E2,2.795744E1,6.0591026E1,4.2556638E2,2.8001642E2,7.9592786E2,2.0702904E4],"tree_param":{"num_deleted":"0","num_feature":"5","num_nodes":"95","size_leaf_vector":"1"}},{"base_weights":[-1.7100245E-3,-1.7279685E-2,1.2847326E-2,-6.2016523E-3,-4.2688262E-1,4.8493445E-1,7.996731E-3,1.3805315E-2,-6.713062E-2,-8.770044E-1,-1.0769076E-1,8.6999506E-1,-4.1507792E-1,-2.3304157E-2,3.8229782E-2,1.944038E-2,-2.6882932E-1,-1.4963025E-1,1.2755348E-1,-1.1952256E0,-8.180834E-2,8.4386355E-1,-5.0886756E-1,3.262642E-1,1.0879989E0,-4.7304675E-1,2.8649017E-1,-1.7231862E-1,3.1106815E-2,1.26891E-1,-2.5482414E-2,1.0937906E-2,2.6873264E-1,-1.0512977E-1,-4.1391551E-1,-6.987193E-2,-1.1043111E0,2.3841509E-1,-6.4153904E-1,-4.3441573E-1,-5.019481E-1,5.2391696E-1,-4.132906E-1,1.2321037E0,-1.8759747E-1,4.7495702E-1,-7.75371E-1,-3.243794E-1,6.035824E-1,1.5219969E0,6.2163895E-1,1.0808501E0,-4.552357E-1,-4.7916514E-1,-1.4894384E-1,1.654667E-1,-3.4195773E-2,2.8032643E-1,5.322427E-3,-3.8546747E-1,3.261592E-3,6.27504E-3,-1.18283555E-1,5.4200715E-4,2.5483176E-1,-6.804295E-2,6.6521704E-1,9.8972104E-2,-4.5423936E-2,-8.482638E-2,-4.144806E-1,3.4809852E-1,4.972124E-2,-5.9243757E-2,-4.9280858E-1,3.8879117E-1,-4.243681E-1,3.3427167E-1,-3.719837E-1,4.2620507E-1,1.7158769E-1,-4.7672862E-1,3.239764E-1,-4.09901E-1,4.4776273E-1,-2.7910602E-1,2.5988963E-1,-4.3587244E-1,3.189851E-1,-3.433317E-1,5.261513E-1,-4.5210925E-1,3.147641E-1,-3.3880994E-1,4.340958E-1,3.8797775E-1,-5.2142195E-2,8.234733E-2,-4.0698588E-2,1.6213022E-2,-5.2053347E-2,1.2477239E-1,-1.6383752E-2,-2.3337476E-2,1.5293764E-1,-2.601032E-1,8.5801266E-2,-4.5730587E-2,2.278228E-2],"categories":[],"categories_nodes":[],"categories_segments":[],"categories_sizes":[],"default_left":[0,0,0,0,0,0,0,0,0,0,0,0,0,0,0,0,0,0,0,0,0,0,0,0,0,0,0,0,0,0,0,0,0,0,0,0,0,0,0,0,0,0,0,0,0,0,0,0,0,0,0,0,0,0,0,0,0,0,0,0,0,0,0,0,0,0,0,0,0,0,0,0,0,0,0,0,0,0,0,0,0,0,0,0,0,0,0,0,0,0,0,0,0,0,0,0,0,0,0,0,0,0,0,0,0,0,0,0,0],"id":26,"left_children":[1,3,5,7,9,11,13,15,17,19,21,23,25,27,29,31,33,35,37,39,41,43,45,47,49,-1,51,53,55,57,59,61,63,65,-1,67,69,71,73,-1,75,77,-1,79,81,83,85,87,-1,89,91,93,-1,-1,95,97,99,101,103,105,107,-1,-1,-1,-1,-1,-1,-1,-1,-1,-1,-1,-1,-1,-1,-1,-1,-1,-1,-1,-1,-1,-1,-1,-1,-1,-1,-1,-1,-1,-1,-1,-1,-1,-1,-1,-1,-1,-1,-1,-1,-1,-1,-1,-1,-1,-1,-1,-1],"loss_changes":[6.7844534E0,6.562759E1,3.5419952E1,1.7169127E1,5.4626434E1,5.487949E1,1.4492157E1,1.689254E1,5.59386E1,3.985418E1,8.593279E1,1.2743034E1,3.9422626E1,6.1013203E1,4.400671E1,2.2034222E1,3.7559654E1,1.861571E2,8.855273E1,1.9024551E1,3.6982727E1,2.6982376E1,4.1841946E1,3.690366E1,1.4931366E1,0E0,4.5572147E1,6.679936E1,4.837394E1,6.0757885E1,4.69114E1,4.0666676E1,5.3143967E1,5.187778E1,0E0,7.366741E1,4.255443E1,6.0572193E1,5.7866592E1,0E0,5.37538E1,3.4915962E1,0E0,5.24588E0,3.5709747E1,6.6373276E1,3.257013E1,4.02392E1,0E0,2.6699188E1,3.7536194E1,1.9331455E1,0E0,0E0,7.127216E1,5.923588E1,4.5622665E1,6.541237E1,7.628368E1,1.0864291E2,4.7530426E1,0E0,0E0,0E0,0E0,0E0,0E0,0E0,0E0,0E0,0E0,0E0,0E0,0E0,0E0,0E0,0E0,0E0,0E0,0E0,0E0,0E0,0E0,0E0,0E0,0E0,0E0,0E0,0E0,0E0,0E0,0E0,0E0,0E0,0E0,0E0,0E0,0E0,0E0,0E0,0E0,0E0,0E0,0E0,0E0,0E0,0E0,0E0,0E0],"parents":[2147483647,0,0,1,1,2,2,3,3,4,4,5,5,6,6,7,7,8,8,9,9,10,10,11,11,12,12,13,13,14,14,15,15,16,16,17,17,18,18,19,19,20,20,21,21,22,22,23,23,24,24,26,26,27,27,28,28,29,29,30,30,31,31,32,32,33,33,35,35,36,36,37,37,38,38,40,40,41,41,43,43,44,44,45,45,46,46,47,47,49,49,50,50,51,51,54,54,55,55,56,56,57,57,58,58,59,59,60,60],"right_children":[2,4,6,8,10,12,14,16,18,20,22,24,26,28,30,32,34,36,38,40,42,44,46,48,50,-1,52,54,56,58,60,62,64,66,-1,68,70,72,74,-1,76,78,-1,80,82,84,86,88,-1,90,92,94,-1,-1,96,98,100,102,104,106,108,-1,-1,-1,-1,-1,-1,-1,-1,-1,-1,-1,-1,-1,-1,-1,-1,-1,-1,-1,-1,-1,-1,-1,-1,-1,-1,-1,-1,-1,-1,-1,-1,-1,-1,-1,-1,-1,-1,-1,-1,-1,-1,-1,-1,-1,-1,-1,-1],"split_conditions":[2.57124E3,2.4935E3,2.58914E3,3E0,5.1E1,5.9E1,2E0,9.8E1,7.2E1,3E0,5.6E1,2E0,8.3E1,2.9E1,4E1,9.5E1,2.15396E3,6.4E1,5E0,4E1,2.8E1,2E0,1E0,5.3E1,2.3E1,-4.7304675E-1,8.9E1,2.64631E3,3.33091E3,3.55908E3,4.5E1,9.2E1,2.0748E3,2.13341E3,-4.1391551E-1,5.0225E2,1E0,7.3E1,3E0,-4.3441573E-1,4.1E1,3E0,-4.132906E-1,3E0,4E0,8E1,1E2,3E0,6.035824E-1,2E0,3.6E1,2E0,-4.552357E-1,-4.7916514E-1,2.66668E3,7.8E1,3E0,4E0,3.6E1,4E0,3.40444E3,6.27504E-3,-1.18283555E-1,5.4200715E-4,2.5483176E-1,-6.804295E-2,6.6521704E-1,9.8972104E-2,-4.5423936E-2,-8.482638E-2,-4.144806E-1,3.4809852E-1,4.972124E-2,-5.9243757E-2,-4.9280858E-1,3.8879117E-1,-4.243681E-1,3.3427167E-1,-3.719837E-1,4.2620507E-1,1.7158769E-1,-4.7672862E-1,3.239764E-1,-4.09901E-1,4.4776273E-1,-2.7910602E-1,2.5988963E-1,-4.3587244E-1,3.189851E-1,-3.433317E-1,5.261513E-1,-4.5210925E-1,3.147641E-1,-3.3880994E-1,4.340958E-1,3.8797775E-1,-5.2142195E-2,8.234733E-2,-4.0698588E-2,1.6213022E-2,-5.2053347E-2,1.2477239E-1,-1.6383752E-2,-2.3337476E-2,1.5293764E-1,-2.601032E-1,8.5801266E-2,-4.5730587E-2,2.278228E-2],"split_indices":[1,1,1,3,0,0,3,0,0,3,0,2,0,0,0,0,1,0,4,0,0,3,4,0,0,0,0,1,1,1,0,0,1,1,0,1,2,0,2,0,0,4,0,4,2,0,0,3,0,4,0,2,0,0,1,0,2,4,0,4,1,0,0,0,0,0,0,0,0,0,0,0,0,0,0,0,0,0,0,0,0,0,0,0,0,0,0,0,0,0,0,0,0,0,0,0,0,0,0,0,0,0,0,0,0,0,0,0,0],"split_type":[0,0,0,0,0,0,0,0,0,0,0,0,0,0,0,0,0,0,0,0,0,0,0,0,0,0,0,0,0,0,0,0,0,0,0,0,0,0,0,0,0,0,0,0,0,0,0,0,0,0,0,0,0,0,0,0,0,0,0,0,0,0,0,0,0,0,0,0,0,0,0,0,0,0,0,0,0,0,0,0,0,0,0,0,0,0,0,0,0,0,0,0,0,0,0,0,0,0,0,0,0,0,0,0,0,0,0,0,0],"sum_hessian":[2.9931234E4,1.4462661E4,1.5468574E4,1.4082796E4,3.7986514E2,1.5631326E2,1.5312261E4,1.060218E4,3.4806162E3,1.5688277E2,2.2298238E2,1.0949876E2,4.6814514E1,7.523381E3,7.7888794E3,1.0395843E4,2.063373E2,2.4448247E3,1.0357914E3,1.1168546E2,4.51973E1,6.5802185E1,1.5718019E2,3.2052387E1,7.744637E1,1.715671E1,2.9657804E1,2.0117277E3,5.5116533E3,3.256365E3,4.5325146E3,1.0053981E4,3.4186176E2,1.8079077E2,2.5546524E1,2.257312E3,1.8751277E2,9.0589954E2,1.298918E2,8.104206E1,3.06434E1,3.1205975E1,1.3991327E1,4.7666195E1,1.8135994E1,3.333574E1,1.23844444E2,2.3708761E1,8.343625E0,3.8942562E1,3.8503807E1,2.0869034E1,8.78877E0,3.1382082E1,1.9803456E3,1.8021667E3,3.7094866E3,1.438935E3,1.8174299E3,3.3423254E2,4.198282E3,9.813267E3,2.4071396E2,2.348941E2,1.0696766E2,1.7264786E2,8.142918E0,3.818987E2,1.8754133E3,4.782795E1,1.3968483E2,6.5103134E1,8.4079645E2,9.081037E1,3.9081425E1,1.0175934E1,2.0467466E1,2.3656887E1,7.549088E0,3.6179047E1,1.1487147E1,8.492317E0,9.643677E0,1.1743488E1,2.1592253E1,1.1355731E2,1.0287129E1,1.3049294E1,1.0659466E1,2.8002403E0,3.6142323E1,6.0181246E0,3.2485683E1,2.6695378E0,1.8199497E1,3.26978E1,1.9476478E3,1.3231906E3,4.7897617E2,2.271428E3,1.4380586E3,1.0241306E3,4.1480447E2,1.5610796E3,2.5635025E2,1.9447466E2,1.3975789E2,1.3357284E3,2.8625537E3],"tree_param":{"num_deleted":"0","num_feature":"5","num_nodes":"109","size_leaf_vector":"1"}},{"base_weights":[-2.0318364E-3,-7.818409E-3,4.3866124E-2,-5.7865903E-3,-5.735972E-1,2.5817668E-1,-1.38445655E-2,-7.740242E-3,3.6371496E-1,-4.6885195E-1,3.5449323E-1,3.947185E-1,-8.423128E-1,-6.6561776E-1,1.1184586E-2,-3.527715E-4,-9.609445E-2,-3.5333622E-1,1.7372259E0,1.4743432E0,-4.5896602E-1,3.4897235E-1,5.9305817E-1,-4.7263554E-1,-7.138947E-2,-2.1430176E-1,-4.782482E-1,2.6652268E-1,-5.4142006E-2,-8.0309305E-3,1.8746763E-1,-4.1049668E-1,-4.675228E-2,2.522351E-1,-5.0193286E-1,1.8599347E0,-2.8996682E-1,-3.4411162E-1,1.8246238E0,-4.3243375E-1,9.697807E-1,3.9441964E-1,-4.8267075E-1,-4.4611892E-1,2.8417096E-1,-4.6266136E-1,2.1336049E-1,7.2070265E-1,7.396213E-2,-1.4572003E-1,2.3909967E-1,7.920743E-4,-1.819486E-2,9.804737E-2,-1.10020176E-1,-2.3002094E-2,-2.6256338E-1,1.0304963E-1,-2.5886869E-2,-4.5195302E-1,1.7006168E-1,6.019963E-1,3.6605445E-1,6.702246E-1,4.0427122E-1,5.124201E-1,-3.6661658E-1,9.389396E-2,4.6328834E-1,2.4286202E-1,-3.9700136E-1,-4.675553E-1,1.8461247E-1,-6.0710043E-2,3.1822082E-1,-1.8903218E-2,3.3093023E-1,4.945856E-2,-7.04197E-2,-3.828665E-1,8.705455E-2],"categories":[],"categories_nodes":[],"categories_segments":[],"categories_sizes":[],"default_left":[0,0,0,0,0,0,0,0,0,0,0,0,0,0,0,0,0,0,0,0,0,0,0,0,0,0,0,0,0,0,0,0,0,0,0,0,0,0,0,0,0,0,0,0,0,0,0,0,0,0,0,0,0,0,0,0,0,0,0,0,0,0,0,0,0,0,0,0,0,0,0,0,0,0,0,0,0,0,0,0,0],"id":27,"left_children":[1,3,5,7,9,11,13,15,17,-1,19,21,23,25,27,29,31,33,35,37,39,41,-1,-1,43,45,-1,47,49,51,53,55,57,59,-1,61,-1,-1,63,-1,65,67,-1,-1,